{"grid": 5, "layers": [{"w": [[0.0921931117773056, -0.16278092563152313, -0.5987634062767029, -0.058431465178728104, 0.2654409408569336, 0.03750090301036835, 0.006709019187837839, -0.046421118080616, -0.1402544230222702, -0.1272052824497223, -0.048640359193086624, -0.09322289377450943, -0.008391720242798328, 0.12575112283229828, -0.056682292371988297, -0.15416625142097473, -0.08652137219905853, -0.0829937681555748, 0.0838208943605423, 0.06822387874126434, 0.2108670026063919, -0.3334183394908905, -0.020906098186969757, -0.1721685528755188, -0.08421923965215683, 0.004144408740103245, -0.13928374648094177, 0.17077629268169403, 0.07444252818822861, -0.057642851024866104, -0.27173951268196106, -0.0433591827750206, -0.15829773247241974, -0.30244162678718567, -0.18652281165122986, -0.04883778840303421, 0.13556581735610962, 0.02835370972752571, 0.1317005604505539, 0.3222769498825073, 0.1010633334517479, 0.1380757838487625, 0.10484526306390762, 0.055636171251535416, 0.038662493228912354, 0.08257472515106201, -0.19349545240402222, 0.007482105400413275, -0.2068682461977005, -0.0710291862487793, -0.16126149892807007, 0.07696355879306793, 0.041802968829870224, -0.13829725980758667, 0.05219438672065735, 0.16855691373348236, -0.37433886528015137, -0.3861309885978699, 0.019234895706176758, -0.05294748395681381, 0.18647246062755585, -0.04001890867948532, -0.09640741348266602, 0.396412193775177, 0.019743550568819046, -0.14109641313552856, 0.11508581787347794, -0.19235491752624512, -0.401166170835495, -0.06820971518754959, -0.25275853276252747, -0.041009850800037384, -0.06486793607473373, 0.08008237183094025, 0.27714240550994873, -0.12050866335630417, -0.006211679894477129, 0.3237040638923645, 0.29504650831222534, -0.11786478012800217, -0.01058381237089634, -0.5901049375534058, 0.0690302774310112, 0.12541164457798004, -0.03704894334077835, -0.07284064590930939, -0.016213320195674896, -0.054234351962804794, -0.0007300418219529092, -0.3018660843372345, -0.16524292528629303, -0.15150824189186096, 0.06411381810903549, -0.019458221271634102, -0.3544410765171051, 0.12292371690273285, 0.14587119221687317, -0.1963888257741928, 0.11615781486034393, 0.17190776765346527, 0.1566959172487259, 0.03690599650144577, -0.08402708172798157, -0.02406647428870201, -0.0816878005862236, 0.1412760317325592, 0.18697145581245422, -0.014789947308599949, 0.14224398136138916, 0.06185963749885559, -0.034727875143289566, 0.22336922585964203, 0.19132263958454132, -0.05573100596666336, 0.2583827078342438, -0.19815313816070557, -0.4328433871269226, -0.17623679339885712, 0.13649630546569824, -0.3554973304271698, -0.33388420939445496, -0.17196771502494812, -0.03845398873090744, -0.056344445794820786, 0.1741662174463272, 0.27084478735923767, 0.09479299932718277, 0.0348457433283329], [-0.05499840900301933, -0.15187954902648926, -0.13500964641571045, -0.08966860920190811, 0.09086412936449051, -0.12843742966651917, 0.05403870344161987, 0.1690540611743927, -0.2119496911764145, -0.31734034419059753, 0.2305591106414795, 0.04415035620331764, -0.22929434478282928, -0.11441556364297867, -0.006682072766125202, 0.1832679659128189, 0.12469486892223358, 0.12046192586421967, 0.26680734753608704, 0.17595024406909943, -0.06964430212974548, -0.1509920209646225, 0.1625596582889557, -0.5194892287254333, -0.02800063230097294, -0.014456553384661674, -0.3313063085079193, 0.2337750941514969, 0.03485258296132088, 0.08143077045679092, -0.339429646730423, -0.07523103803396225, -0.22360309958457947, -0.564926028251648, -0.36790376901626587, -0.2241484522819519, 0.2723316550254822, -0.14787426590919495, 0.19975900650024414, -0.31814882159233093, 0.012680336833000183, 0.054268963634967804, 0.15401816368103027, 0.23595796525478363, -0.15441995859146118, 0.06457365304231644, 0.08467083424329758, 0.2613477408885956, -0.025791602209210396, -0.41892948746681213, -0.19570910930633545, -0.3943922221660614, -0.17161747813224792, -0.186543807387352, -0.12934736907482147, 0.2414272427558899, -0.23619762063026428, -0.5723417401313782, 0.1902051717042923, 0.05234052240848541, 0.20583108067512512, 0.051848068833351135, -0.16723090410232544, -0.45311179757118225, -0.22516216337680817, -0.20517365634441376, 0.21331888437271118, 0.012048310600221157, -0.13539539277553558, 0.12612055242061615, 0.28724777698516846, -0.12268206477165222, 0.09593392163515091, 0.1630852371454239, -0.16715595126152039, 0.24324940145015717, -0.2467964142560959, 0.2146708369255066, 0.02600916102528572, -0.20695602893829346, -0.32823288440704346, 0.006139233708381653, -0.2647280991077423, -0.010026584379374981, -0.16120575368404388, 0.058897554874420166, 0.07169827818870544, -0.07348863780498505, 0.04339956119656563, -0.3202515244483948, -0.27599263191223145, -0.11932899802923203, -0.024570811539888382, 0.04245505481958389, 0.13540631532669067, -0.07701142132282257, 0.037056632339954376, 0.26082509756088257, 0.07938649505376816, -0.1336800754070282, -0.12672191858291626, 0.398063600063324, 0.024682503193616867, 0.25487005710601807, 0.04856852814555168, 0.32680144906044006, 0.3837035000324249, 0.1071261540055275, -0.05759864300489426, -0.022530997171998024, 0.0143374502658844, 0.10948878526687622, -0.2073923647403717, -0.20675043761730194, 0.2604069709777832, 0.08471325039863586, 0.2838681638240814, -0.12031529098749161, 0.2340022176504135, -0.3114166855812073, 0.13446733355522156, 0.0822206363081932, -0.01134609617292881, 0.09666972607374191, 0.14806893467903137, -0.17351166903972626, 0.14171171188354492, 0.17164523899555206], [0.00886833667755127, 0.13874518871307373, 0.026479726657271385, -0.004898784216493368, 0.07547040283679962, -0.41091951727867126, -0.1135563924908638, 0.3715227544307709, 0.008787577971816063, -0.12117017060518265, 0.18374690413475037, -0.4022093415260315, -0.1323581039905548, -0.06887225061655045, -0.025508813560009003, -0.3396810293197632, 0.1039513349533081, -0.27754318714141846, -0.1611901819705963, -0.05684014782309532, 0.11502568423748016, -0.048917412757873535, 0.17086292803287506, -0.08821997046470642, -0.02862437814474106, -0.10985440760850906, 0.38454943895339966, -0.4322643280029297, 0.1817379891872406, 0.002228792756795883, 0.04585319757461548, -0.022177422419190407, 0.040775422006845474, 0.06023351848125458, -0.21483035385608673, 0.02367476373910904, -0.04766249284148216, -0.27742910385131836, 0.05187308415770531, -0.13824822008609772, -0.03267349302768707, 0.04238997399806976, 0.2040640264749527, -0.5360767841339111, -0.002832018304616213, 0.4149147570133209, -0.1101166307926178, 0.07749627530574799, 0.06621890515089035, 0.09797418862581253, 0.05088616535067558, -0.654109537601471, -0.11514007300138474, -0.3107631504535675, -0.43850383162498474, 0.1602204293012619, -0.2505732774734497, 0.06939385831356049, -0.06327036023139954, 0.1093730479478836, -0.1182573139667511, 0.18581657111644745, -0.07385953515768051, -0.10919687151908875, 0.4202157258987427, 0.26318687200546265, 0.35945266485214233, 0.2517611086368561, 0.35965579748153687, 0.23656995594501495, -0.23528359830379486, 0.20400236546993256, -0.0740031749010086, -0.02459019050002098, 0.0017398055642843246, -0.07797003537416458, -0.26297155022621155, -0.3645775318145752, 0.012236337177455425, -0.05085338279604912, 0.14810384809970856, 0.09945110231637955, -0.23061037063598633, -0.1312459260225296, -0.15937432646751404, 0.2652570307254791, 0.18189315497875214, -0.006674542557448149, 0.04239898547530174, 0.1531684696674347, 0.008410529233515263, -0.0130763603374362, 0.13234631717205048, 0.26893922686576843, -0.1710280179977417, -0.2314571589231491, 0.13707925379276276, -0.5502697825431824, -0.09477240592241287, -0.5529916286468506, -0.5159487128257751, 0.0013464954681694508, -0.025644803419709206, -0.10856641829013824, 0.07481299340724945, 0.05515775457024574, 0.1441868096590042, -0.2630646526813507, 0.07791641354560852, 0.03232154995203018, 0.00162797374650836, -0.014520177617669106, 0.21172833442687988, -0.25341323018074036, -0.03866048529744148, 0.3230450451374054, -0.13745984435081482, -0.33084529638290405, -0.08084601163864136, 0.07086427509784698, 0.021503031253814697, -0.3541705310344696, 0.310518354177475, 0.02643449790775776, -0.05641833692789078, -0.011419475078582764, 0.2580359876155853, -0.16051208972930908], [-0.2035348266363144, -0.08973672986030579, -0.016640691086649895, 0.09521795064210892, -0.38860753178596497, -0.08397571742534637, -0.3389951288700104, -0.18401336669921875, 0.23219357430934906, -0.12638120353221893, 0.13027822971343994, 0.027432292699813843, 0.1929464191198349, 0.17686067521572113, 0.15248222649097443, 0.37592455744743347, 0.24816152453422546, 0.17028920352458954, 0.03332185745239258, 0.2671735882759094, -0.24703849852085114, 0.30726295709609985, 0.05695420503616333, 0.07697685062885284, 0.10266044735908508, -0.06540366262197495, 0.031381480395793915, -0.2587971091270447, -0.056724198162555695, -0.2890477478504181, 0.06384355574846268, 0.3492027521133423, -0.5243176817893982, 0.18973837792873383, 0.1435846984386444, -0.6152951717376709, -0.20467372238636017, 0.012475100345909595, -0.024410435929894447, -0.11228051036596298, -0.026546448469161987, 0.018820207566022873, -0.36185842752456665, -0.460735559463501, 0.23447148501873016, -0.36110830307006836, -0.4224969744682312, -0.11332124471664429, 0.22227272391319275, -0.12662945687770844, 0.022735657170414925, -0.16010501980781555, 0.09891267865896225, -0.6661308407783508, -0.020995082333683968, -0.11807800829410553, -0.0871085375547409, -0.3241537809371948, -0.19183406233787537, 0.08203288912773132, -0.06080448254942894, 0.07016340643167496, 0.26457569003105164, -0.06863649934530258, -0.6861082315444946, -0.2701370418071747, 0.0666801854968071, -0.1797756552696228, -0.07713344693183899, 0.06675659865140915, -0.06973078846931458, 0.06803089380264282, -0.08127141743898392, -0.050188321620225906, -0.3046879470348358, 0.02503097988665104, -0.04066319391131401, -0.12147396057844162, -0.03948749229311943, 0.09845118969678879, 0.09028496593236923, 0.3384588658809662, 0.14217451214790344, -0.33793914318084717, -0.47354164719581604, 0.258767306804657, 0.05208674818277359, 0.24073736369609833, 0.006209119688719511, 0.08281148970127106, 0.2015845775604248, 0.12338021397590637, 0.025247078388929367, 0.21101011335849762, -0.011252210475504398, 0.42644965648651123, -0.05870236083865166, 0.15266968309879303, -0.26441067457199097, -0.3850753903388977, 0.07698952406644821, -0.14422181248664856, -0.20695389807224274, -0.11698292940855026, -0.03252464160323143, -0.2685558795928955, -0.10461710393428802, -0.058207377791404724, -0.0210932195186615, -0.014449890702962875, 0.09631767123937607, -0.09910761564970016, -0.16184870898723602, 0.13728924095630646, -0.10389482975006104, 0.24451056122779846, 0.10173702239990234, -0.24753573536872864, -0.45497646927833557, 0.09535133093595505, 0.05765823647379875, 0.06112533062696457, -0.025881456211209297, 0.019378215074539185, 0.11513302475214005, -0.04847966879606247, -0.08466626703739166, 0.184834286570549], [0.1582501083612442, -0.2489701211452484, -0.1237340196967125, 0.05749616399407387, -0.11118736118078232, -0.032277051359415054, 0.16821534931659698, -0.16278523206710815, 0.01290357206016779, -0.13610179722309113, -0.1746496558189392, 0.11776792258024216, -0.22928698360919952, -0.06350453197956085, 0.1492294818162918, -0.10343438386917114, 0.13333860039710999, -0.23698018491268158, -0.270652711391449, -0.012085497379302979, 0.017823833972215652, 0.01643862947821617, 0.007174504920840263, -0.0856219157576561, 0.004863589070737362, 0.08056773990392685, 0.20123466849327087, 0.11252225935459137, 0.07380720973014832, 0.10647046566009521, 0.3136986196041107, 0.10938914120197296, 0.018943417817354202, 0.08458001166582108, 0.26390793919563293, 0.006757995113730431, 0.11301775276660919, 0.2590240240097046, -0.371866911649704, 0.09920713305473328, -0.03535458818078041, 0.03522951155900955, -0.6606605648994446, 0.13502486050128937, 0.24698004126548767, -0.16073329746723175, -0.0387452058494091, -0.08518455922603607, -0.039945896714925766, 0.2959273159503937, 0.20518335700035095, -0.022754188627004623, -0.007706542499363422, -0.9685474038124084, 0.06831718236207962, -0.24318090081214905, -0.08654502034187317, 0.2840861678123474, -0.00754918996244669, -0.06573489308357239, -0.0039927540346980095, 0.07391377538442612, 0.13814391195774078, -0.26812413334846497, -0.03175608813762665, -0.11457794904708862, 0.00831048283725977, -0.8899936079978943, -0.02089979313313961, -0.007296624593436718, 0.263041615486145, 0.16860483586788177, -0.1369152069091797, -0.10562138259410858, -0.2709891200065613, -0.14646495878696442, 0.12027696520090103, -0.14676690101623535, -0.23434296250343323, -0.1940447986125946, -0.23677942156791687, -0.08307115733623505, -0.08987771719694138, 0.07653159648180008, 0.02811870165169239, -0.03722027316689491, 0.018937882035970688, -0.10904820263385773, 0.10330016165971756, -0.03753429651260376, 0.009989971294999123, 0.14865149557590485, -0.3841758966445923, 0.04559217020869255, -0.2887459397315979, -0.16403542459011078, 0.05446695163846016, -0.49519988894462585, -0.1360311210155487, 0.02431904338300228, -0.3105924129486084, -0.1764538288116455, 0.07376111298799515, 0.0643656849861145, -0.16436724364757538, -0.1623094379901886, -0.23362165689468384, 0.07288523763418198, -0.030815934762358665, -0.27985522150993347, 0.04808850586414337, 0.16832096874713898, 0.1818530559539795, 0.06938358396291733, 0.04272519797086716, -0.14398296177387238, 0.031103551387786865, 0.13481660187244415, -0.27915695309638977, -0.0471288226544857, -0.26999208331108093, 0.10672719031572342, -0.011327384039759636, -0.19030526280403137, 0.08992074429988861, 0.02638845704495907, -0.04383772984147072, -0.17530520260334015], [0.12679505348205566, 0.08701521158218384, -0.016875486820936203, 0.012387679889798164, -0.35108205676078796, -0.162406325340271, -0.06746996194124222, -0.17527498304843903, -0.12289492040872574, -0.5793367028236389, 0.0205466877669096, 0.1721629649400711, -0.018178464844822884, -0.7883264422416687, -0.021080490201711655, -0.15723660588264465, -0.1781768500804901, -0.15429623425006866, 0.1293659657239914, 0.057269543409347534, 0.16155190765857697, -0.05903734266757965, -0.08327227085828781, 0.09029784798622131, -0.03455720469355583, -0.19906122982501984, -0.20228128135204315, -0.031107233837246895, 0.0763644203543663, 0.0738837718963623, -0.3499690294265747, -0.0037947027012705803, 0.06070409342646599, 0.06466716527938843, -0.10375828295946121, -0.03182979300618172, 0.12850260734558105, 0.025329753756523132, 0.1010662168264389, 0.20648103952407837, -0.019545704126358032, 0.13897773623466492, 0.09279421716928482, -0.03228108584880829, 0.2202557623386383, 0.0020094620995223522, -0.25737982988357544, 0.15851227939128876, -0.10853537917137146, 0.09749746322631836, -0.031091269105672836, -0.017571907490491867, 0.06060943379998207, -0.10156279057264328, 0.02536199428141117, -0.06518569588661194, 0.18795569241046906, -0.2351934313774109, -0.020159801468253136, -0.15550246834754944, 0.03897009789943695, -0.264808714389801, -0.16528728604316711, 0.4430893063545227, -0.19581462442874908, -0.014287440106272697, 0.002231486840173602, -0.07825543731451035, -0.13895565271377563, -0.005094678141176701, -0.3452056050300598, -0.09728778898715973, 0.06100897863507271, 0.19651608169078827, 0.30941328406333923, 0.06742164492607117, -0.09876523911952972, 0.07423637062311172, 0.05022389069199562, -0.3201766610145569, -0.002804988529533148, -0.026851434260606766, 0.07742701470851898, 0.01674375683069229, 0.08656206727027893, -0.13602685928344727, -0.33970606327056885, -0.11236746609210968, 0.2207728773355484, -0.28298747539520264, 0.07429959625005722, -0.23737414181232452, 0.036419350653886795, 0.03765547275543213, -0.2980211675167084, 0.004362369421869516, 0.12623657286167145, 0.10438244044780731, -0.15237188339233398, 0.08186230063438416, 0.030690044164657593, -0.04185083881020546, -0.2565259635448456, -0.27133625745773315, -0.8258140087127686, 0.019007116556167603, 0.029947767034173012, 0.254899263381958, 0.1357930451631546, 0.14648526906967163, 0.23007602989673615, 0.2741662561893463, 0.23030415177345276, -0.09250932186841965, 0.37748411297798157, -0.08463515341281891, -0.04221557080745697, -0.1271468997001648, 0.0523858442902565, 0.17427271604537964, -0.13641484081745148, 0.07506462186574936, -0.07789841294288635, -0.08543601632118225, -0.15391165018081665, -0.28602856397628784, -0.140058234333992, 0.10591871291399002], [-0.07448579370975494, -0.33826521039009094, 0.11196109652519226, -0.01696951501071453, -0.4066345989704132, 0.27777794003486633, -0.11427038908004761, 0.19958901405334473, -0.1545032262802124, -0.26555386185646057, -0.044367872178554535, -0.0968051627278328, -0.2997490167617798, -0.3867122232913971, -0.24282634258270264, 0.21069996058940887, 0.02917390502989292, 0.2464148998260498, 0.27694740891456604, -0.18573197722434998, -0.055738165974617004, -0.0528874397277832, 0.017506379634141922, 0.12532344460487366, 0.036881107836961746, -0.02812747284770012, -0.23023466765880585, 0.014006275683641434, 0.07915283739566803, -0.41267129778862, -0.24480479955673218, -0.4293193221092224, -0.43598702549934387, -0.09324555844068527, -0.3270954489707947, 0.31664150953292847, -0.1270095705986023, 0.006147056818008423, 0.027206730097532272, -0.01335309911519289, -0.11841310560703278, -0.04819251596927643, -0.10949549823999405, 0.2543255090713501, -0.06262073665857315, -0.0698787048459053, 0.05820981785655022, 0.08872488141059875, -0.039039645344018936, -0.04889936372637749, -0.3005669414997101, -0.03448345884680748, 0.11459607630968094, -0.006858167704194784, 0.08968116343021393, -0.06696002930402756, -0.336060494184494, 0.12196030467748642, 0.2796376943588257, -0.6156032085418701, 0.18658246099948883, -0.30353349447250366, -0.13018374145030975, -0.06361090391874313, -0.06657735258340836, -0.24913465976715088, 0.06754843890666962, -0.19293327629566193, -0.027603214606642723, -0.09678515046834946, 0.12204635143280029, 0.07709647715091705, 0.06934849172830582, 0.056546296924352646, -0.17496469616889954, 0.016973577439785004, 0.21975041925907135, 0.1684080958366394, 0.03817006200551987, -0.08735217154026031, 0.0025736549869179726, -0.17486494779586792, -0.22839006781578064, 0.1237528994679451, 0.33180728554725647, -0.2500745952129364, -0.027656584978103638, -0.09626568108797073, 0.06837456673383713, -0.31087610125541687, -0.3215869665145874, -0.1000855565071106, -0.22155460715293884, 0.17350399494171143, 0.3108550012111664, 0.13632799685001373, 0.12385120987892151, 0.19006289541721344, 0.23785173892974854, -0.2511305809020996, -0.12392132729291916, 0.1884164959192276, -0.22405195236206055, -0.09796976298093796, -0.10153215378522873, 0.28170937299728394, 0.3293861746788025, 0.02152843587100506, 0.07686608284711838, -0.18839120864868164, 0.056327447295188904, 0.06818375736474991, -0.1503424048423767, -0.48875850439071655, 0.0523851215839386, 0.24096274375915527, -0.43240466713905334, 0.13049708306789398, 0.07767987996339798, 0.28740042448043823, 0.030714938417077065, -0.2218470722436905, 0.0812201276421547, 0.1643008142709732, 0.18308591842651367, 0.22336915135383606, 0.1907227784395218, 0.24838906526565552], [-0.014572019688785076, 0.14809009432792664, 0.044201720505952835, 0.3061593770980835, 0.39908528327941895, 0.022840499877929688, -0.32152828574180603, 0.12328830361366272, -0.004057054407894611, -0.03554249927401543, -0.09138447046279907, -0.48249873518943787, 0.09204257279634476, -0.005755948834121227, -0.24819841980934143, -0.0448748841881752, -0.22000592947006226, -0.23099789023399353, -0.03984464332461357, 0.039398327469825745, 0.21499869227409363, -0.1136050596833229, 0.023979097604751587, -0.104715995490551, -0.18118900060653687, -0.034154895693063736, -0.05085829645395279, -0.19875824451446533, 0.011020866222679615, 0.15717293322086334, 0.08404333889484406, -0.060658566653728485, 0.16170886158943176, 0.08745556324720383, -0.16262538731098175, 0.10658526420593262, 0.3055413067340851, -0.413045734167099, 0.008596108295023441, 0.0546407587826252, -0.10938821732997894, 0.029508082196116447, -0.4930914640426636, 0.03140416368842125, 0.020624574273824692, 0.17792150378227234, 0.11790768057107925, -0.05504612997174263, 0.01584007404744625, 0.002389530185610056, 0.10154418647289276, -0.20556098222732544, -0.18588285148143768, 0.16530780494213104, 0.2124578356742859, -0.20159950852394104, -0.005813885945826769, -0.3101952373981476, 0.006350753363221884, -0.6661131381988525, -0.10452016443014145, -0.3413800597190857, -0.03664090111851692, -0.014485164545476437, -0.019592132419347763, -0.08948443084955215, 0.11799705028533936, 0.297453910112381, -0.13950064778327942, -0.017061391845345497, -0.04161559417843819, 0.056353699415922165, 0.12747056782245636, -0.40048614144325256, -0.022771533578634262, -0.7946758270263672, 0.012421458028256893, -0.39293229579925537, 0.07642187178134918, -0.14367038011550903, -0.30876508355140686, -0.1328868865966797, -0.2187451273202896, 0.08679383993148804, -0.035012513399124146, -0.31522268056869507, -0.06578141450881958, 0.2077217996120453, 0.22595040500164032, 0.24100203812122345, -0.12184741348028183, 0.12844134867191315, 0.15390512347221375, 0.3424162268638611, -0.19249168038368225, -0.14265137910842896, -0.3733978867530823, -0.06610844284296036, -0.33192384243011475, -0.3209928870201111, 0.36371687054634094, 0.11004344373941422, 0.1786760538816452, 0.32145872712135315, 0.056659914553165436, 0.0547185093164444, 0.1989467442035675, -0.27415701746940613, -0.052957408130168915, 0.37256860733032227, -0.21019776165485382, -0.4882408678531647, 0.11847596615552902, -0.15393903851509094, -0.0017424612306058407, -0.20088443160057068, 0.17602764070034027, 0.1347440630197525, 0.012796437367796898, 0.1015382632613182, 0.06388746947050095, -0.15489163994789124, 0.19092975556850433, 0.0993495061993599, -0.10864484310150146, -0.5288479924201965, 0.0005830983282066882, -0.06156531721353531], [-0.09985917806625366, -0.09234500676393509, -0.06690114736557007, 0.08701576292514801, -0.20426230132579803, 0.0003803625877480954, -0.3416745960712433, -0.049990247935056686, 0.19960013031959534, 0.012013350613415241, 0.34914806485176086, 0.01323715690523386, 0.04463575780391693, 0.2903248965740204, 0.22283953428268433, 0.1070205345749855, 0.14778687059879303, 0.20431016385555267, 0.0031144777312874794, 0.14291921257972717, -0.10812095552682877, -0.22492998838424683, 0.11142873018980026, -0.055006999522447586, 0.02334241010248661, 0.020661087706685066, 0.07642944157123566, -0.05123520269989967, 0.11125818639993668, -0.15548773109912872, -0.13760341703891754, -0.010281204245984554, -0.03823390230536461, -0.05769885331392288, 0.10830067843198776, -0.0919441506266594, -0.06775344908237457, 0.16975830495357513, 0.08763433992862701, 0.0036041245330125093, -0.08432555943727493, 0.10078443586826324, -0.04103483632206917, 0.1260763257741928, -0.05002901703119278, -0.18399885296821594, -0.4660090208053589, -0.027149727568030357, 0.12442021816968918, -0.0975237712264061, -0.1131669357419014, -0.14173752069473267, -0.13103973865509033, 0.1360243409872055, -0.09690806269645691, 0.04089232161641121, 0.08691462129354477, -0.12985901534557343, 0.18527956306934357, 0.17565275728702545, -0.27844178676605225, -0.450054794549942, -0.22548526525497437, -0.11231684684753418, 0.21661624312400818, -0.2838733494281769, 0.18126320838928223, 0.042708445340394974, 0.09088584780693054, 0.09760309010744095, 0.08930902183055878, -0.0058060334995388985, -0.1145966500043869, -0.01880529150366783, -0.258925199508667, -0.6935678720474243, -0.4673656225204468, -0.17203201353549957, 0.041164301335811615, 0.23244185745716095, 0.1691681146621704, 0.07982231676578522, 0.2572127878665924, -0.3336077332496643, 0.06853551417589188, 0.1864735186100006, -0.30278530716896057, -0.02739715948700905, -0.35307252407073975, 0.05516577139496803, 0.2531117796897888, -0.3627389073371887, -0.01210850477218628, 0.09169071912765503, -0.08004964888095856, 0.3255796730518341, -0.4867773652076721, 0.21552172303199768, -0.27116963267326355, 0.1921013742685318, -0.12222300469875336, -0.21412459015846252, 0.054288338869810104, -0.07712861895561218, -0.25615426898002625, -0.1466173380613327, 0.005017266608774662, -0.16022899746894836, -0.24829509854316711, -0.07809324562549591, -0.14838063716888428, -0.47947320342063904, -0.11246191710233688, -0.22669818997383118, -0.05758080631494522, 0.0012581743067130446, -0.24818965792655945, 0.41783902049064636, -0.03785897046327591, -0.04368631914258003, 0.2309587299823761, 0.19497135281562805, -0.008710630238056183, 0.010625401511788368, -0.16104716062545776, 0.06773655861616135, 0.4555542767047882, 0.166459858417511], [0.15810222923755646, -0.3050452172756195, 0.053648337721824646, 0.013135812245309353, -0.08182915300130844, 0.02060505747795105, -0.026909824460744858, -0.0524313747882843, -0.04275515303015709, -0.026180678978562355, 0.04342449828982353, 0.08836527168750763, 0.018643073737621307, -0.08567417412996292, 0.10511942207813263, -0.023026345297694206, 0.12557227909564972, -0.05511993169784546, -0.24777258932590485, -0.10913492739200592, 0.09680330753326416, 0.2513137757778168, 0.06490195542573929, -0.17159393429756165, 0.14290277659893036, 0.21378585696220398, 0.04428717866539955, 0.05466950684785843, 0.10052945464849472, 0.19808022677898407, 0.3915390372276306, -0.39800959825515747, 0.08131330460309982, 0.06325148791074753, 0.025402162224054337, 0.1506153792142868, -0.12216773629188538, 0.18182402849197388, -0.3446883261203766, 0.23646143078804016, -0.030086658895015717, 0.11400923132896423, 0.11808209866285324, 0.04724767059087753, 0.025563061237335205, -0.1109250858426094, 0.004869776777923107, -0.07721425592899323, 0.015557416714727879, 0.2012045681476593, 0.05520422011613846, -0.06106539070606232, -0.137709841132164, 0.11914213746786118, -0.10537812858819962, 0.06479055434465408, -0.22452569007873535, 0.0018977213185280561, -0.08410187810659409, 0.04577130451798439, -0.2895573377609253, -0.47985056042671204, 0.44789379835128784, -0.16243526339530945, -0.08235952258110046, -0.24051889777183533, -0.07763071358203888, 0.06587693840265274, -0.014304794371128082, -0.08249557763338089, 0.17066040635108948, -0.005340259056538343, 0.11216866970062256, -0.027272064238786697, -0.305897980928421, 0.07796386629343033, -1.0907219648361206, -0.029569095000624657, -0.12579017877578735, 0.01195415761321783, -0.0766882449388504, -0.06989763677120209, -0.11545058339834213, 0.022814501076936722, -0.3924387991428375, -0.39192962646484375, -0.13911841809749603, 0.19326996803283691, -0.008392800576984882, 0.1500941812992096, -0.00460862647742033, -0.16813498735427856, -0.28921520709991455, 0.08448056876659393, -0.0681762546300888, -0.3433336019515991, 0.14429473876953125, 0.1475195437669754, -0.17964866757392883, 0.1125701442360878, -0.051365770399570465, -0.11524150520563126, -0.16003942489624023, 0.09122175723314285, -0.13290873169898987, -0.19057698547840118, -0.16252261400222778, 0.019991559907794, 0.08566028624773026, -0.18461062014102936, 0.01036880537867546, -0.03250750154256821, 0.11930213868618011, 0.2681976854801178, 0.14711043238639832, 0.025642095133662224, -0.017559852451086044, 0.10650922358036041, 0.029383722692728043, -0.1283671110868454, -0.06807219982147217, -0.02021852508187294, -0.03480792045593262, -0.4213276207447052, 0.2894532084465027, -0.19289137423038483, 0.03641456365585327, -0.24736987054347992], [0.36327046155929565, 0.19033871591091156, -0.14932775497436523, 0.16452835500240326, -0.08531072735786438, 0.28919464349746704, 0.024084260687232018, -0.06326252967119217, -0.2115602344274521, -0.07678861916065216, 0.15832382440567017, 0.2677411139011383, 0.003692676778882742, -0.020862843841314316, 0.10265764594078064, -0.03975878655910492, 0.11508709192276001, -0.08886639028787613, 0.14606471359729767, 0.09268323332071304, 0.23974214494228363, 0.13085190951824188, 0.013473555445671082, 0.06444677710533142, -0.16562460362911224, -0.22690610587596893, -0.1984878033399582, -0.048514075577259064, 0.10369594395160675, 0.13809797167778015, -0.056423742324113846, -0.12884356081485748, 0.15840137004852295, 0.09990796446800232, -0.019944271072745323, 0.023737138137221336, -0.2812480032444, 0.06006883084774017, 0.06117289885878563, -0.017146315425634384, -0.18274149298667908, 0.06770507991313934, 0.09693092852830887, 0.07663154602050781, 0.27309805154800415, -0.06181836128234863, -0.19191071391105652, 0.12387404590845108, -0.22407656908035278, -0.16606171429157257, 0.09272001683712006, -0.03579672798514366, 0.10312863439321518, -0.06955094635486603, -0.6966578364372253, 0.21141088008880615, 0.20854195952415466, 0.05738217383623123, 0.08489102870225906, -0.024548156186938286, 0.16564367711544037, 0.09971865266561508, -0.08666367828845978, 0.32014596462249756, -0.2945808172225952, 0.157783642411232, -0.007580649573355913, -0.04170272499322891, 0.07666494697332382, -0.07870379835367203, -0.16637809574604034, -0.021113798022270203, -0.10177014023065567, 0.0874420776963234, 0.3836711645126343, -0.023109808564186096, -0.23918816447257996, 0.2906532287597656, -0.2746643126010895, -0.5097060203552246, 0.06431221216917038, 0.28905734419822693, -0.03596016392111778, -0.7659161686897278, 0.11544463038444519, -0.018577128648757935, 0.09731131047010422, 0.040819134563207626, 0.15948635339736938, -0.09827674180269241, 0.08793577551841736, -0.09649218618869781, -0.5242032408714294, -0.07499270141124725, -0.08448546379804611, -0.03437425568699837, -0.6236138939857483, 0.028842542320489883, -0.07988473773002625, -0.049990762025117874, -0.09199400991201401, -0.11769118160009384, 0.09486613422632217, -0.02212453819811344, -0.21554936468601227, 0.017883939668536186, -0.44986283779144287, 0.04759479686617851, -0.0826909989118576, -0.03152068331837654, 0.20711055397987366, 0.035830095410346985, 0.1910073459148407, 0.05524502322077751, -0.11857118457555771, 0.05606428161263466, -0.1327761858701706, -0.3233048617839813, 0.09285139292478561, 0.11959924548864365, -0.2294236421585083, -0.12137328088283539, -0.0805714875459671, -0.0020532107446342707, 0.1744658499956131, 0.10898486524820328, -0.1691626012325287, 0.18730957806110382], [-0.17880500853061676, -0.07608573138713837, -0.03629405423998833, 0.12220516055822372, 0.2828410565853119, 0.4859292209148407, 0.12655901908874512, -0.001839526230469346, -0.04639502242207527, 0.13115805387496948, -0.03859168663620949, 0.11869000643491745, -0.4358726143836975, 0.15710929036140442, 0.304916650056839, 0.06725689023733139, -0.278423011302948, 0.27939847111701965, 0.22918392717838287, -0.17133158445358276, -0.09806998819112778, -0.39107710123062134, 0.10765985399484634, 0.11011222749948502, 0.2733863890171051, -0.09409096091985703, -0.24283169209957123, 0.10771063715219498, 0.21725085377693176, -0.13620682060718536, -0.236100971698761, 0.007330941967666149, 0.1616804599761963, 0.06032530590891838, -0.09747007489204407, -0.15983547270298004, -0.12594318389892578, 0.17543238401412964, 0.04921182990074158, -0.0854511559009552, -0.12210202217102051, 0.12869733572006226, -0.037749748677015305, -0.038064464926719666, 0.033112723380327225, 0.017803408205509186, 0.014578252099454403, 0.312374085187912, 0.04476345330476761, -0.28121790289878845, -0.23590236902236938, 0.2841750681400299, 0.4045008718967438, -0.19609129428863525, -0.76237952709198, -0.06986080855131149, -0.19232283532619476, -0.08100917190313339, -0.32579687237739563, -0.012811615131795406, 0.057993415743112564, 0.14454901218414307, 0.03183003515005112, -0.030805161222815514, 0.0804416760802269, -0.17985489964485168, -0.31365376710891724, 0.07371196150779724, -0.2136254757642746, 0.10082048177719116, 0.06951358169317245, -0.00015953939873725176, 0.2583898901939392, 0.22494637966156006, -0.13727040588855743, 0.35710763931274414, -0.08338051289319992, 0.11136502772569656, 0.06487134099006653, -0.45536449551582336, 0.11703581362962723, 0.03932085260748863, -0.19109924137592316, 0.20986342430114746, 0.020432300865650177, -0.4877881407737732, 0.0954912006855011, -0.02390698716044426, 0.020483508706092834, -0.05726466700434685, -0.20983433723449707, -0.06207228824496269, -0.12255576997995377, -0.04429791495203972, 0.279723197221756, 0.05522313341498375, -0.03319266811013222, -0.19233933091163635, 0.4012320935726166, -0.15891717374324799, -0.13897666335105896, 0.058114293962717056, -0.2723487615585327, -0.2826400399208069, 0.2235015481710434, 0.029419200494885445, -0.5344381332397461, 0.22309273481369019, 0.30292409658432007, -0.047602538019418716, 0.07194983214139938, -0.09021398425102234, -0.1495976746082306, -0.0745590552687645, -0.2748187482357025, 0.20687322318553925, 0.09756479412317276, 0.22455230355262756, -0.38189250230789185, -0.20337256789207458, 0.1562012881040573, -0.4511450231075287, -0.023140419274568558, -0.3214820921421051, 0.17928612232208252, -0.06461087614297867, -0.08761750161647797, -0.05755506455898285], [0.10959392786026001, 0.13475246727466583, -0.00671006552875042, 0.08650258928537369, 0.04821784421801567, -0.2314370572566986, -0.1005917489528656, 0.103569895029068, 0.12379651516675949, 0.1387481689453125, -0.35902220010757446, -0.4026084542274475, -0.125070720911026, -0.013430355116724968, 0.14304253458976746, -0.2904369533061981, -0.33717209100723267, -0.09237456321716309, -0.1483769565820694, 0.14359967410564423, 0.23850509524345398, -0.15720495581626892, 0.06071607768535614, 0.02725014090538025, 0.043160729110240936, 0.26023703813552856, 0.2529609203338623, 0.3079434037208557, -0.1196776032447815, 0.26029446721076965, 0.05586738884449005, 0.14807452261447906, 0.0050187003798782825, -0.5572325587272644, -0.18055208027362823, 0.0720406323671341, 0.2631817162036896, -0.5290759205818176, -0.07475081086158752, 0.153113454580307, -0.05772161856293678, 0.13898469507694244, -0.01767386682331562, -0.5121433138847351, 0.03250885009765625, 0.22586700320243835, 0.2879616618156433, -0.21975268423557281, 0.17361308634281158, 0.1368568390607834, 0.307064950466156, 0.1823621243238449, 0.20103195309638977, 0.06881250441074371, -0.16553571820259094, -0.3999069631099701, -0.05524401739239693, -0.3878161907196045, -0.20948629081249237, 0.1623852252960205, -0.09061853587627411, 0.15540753304958344, -0.47727444767951965, 0.16440455615520477, -0.670269787311554, 0.18850372731685638, -0.357539564371109, -0.255962610244751, 0.0628233328461647, 0.07468655705451965, -0.19134610891342163, 0.282179057598114, -0.27366766333580017, 0.1217215359210968, -0.01693756692111492, 0.007556607946753502, 0.2984609305858612, -0.15038879215717316, 0.17296114563941956, -0.008795571513473988, -0.15174564719200134, -0.01613757386803627, -0.12944641709327698, 0.03155013173818588, -0.36463114619255066, -0.10921169072389603, 0.005837759934365749, 0.33396369218826294, -0.09165145456790924, -0.24610744416713715, -0.3856281042098999, 0.1286124736070633, 0.29496705532073975, -0.4077654182910919, -0.07248634845018387, -0.02034064754843712, 0.23269051313400269, 0.17065566778182983, -0.47973471879959106, 0.001400136505253613, 0.11485670506954193, 0.10322792828083038, 0.1981518417596817, -0.20826031267642975, 0.09191186726093292, -0.11284458637237549, -0.01932670921087265, -0.1495434045791626, 0.08521092683076859, -0.37130120396614075, -0.27514925599098206, -0.21505673229694366, 0.017977075651288033, -0.19016648828983307, -0.06713537871837616, -0.04598792642354965, -0.17013125121593475, -0.30594730377197266, -0.6003206968307495, -0.6021696329116821, 0.09804140031337738, 0.3829863369464874, 0.1570706069469452, -0.06470879167318344, -0.14877153933048248, -0.0801578238606453, -0.21594344079494476, -0.16943512856960297], [-0.041993647813797, -0.0478031150996685, -0.3634851276874542, -0.05006781592965126, -0.032141730189323425, -0.39430856704711914, 0.1100115031003952, -0.07927260547876358, -0.011532207019627094, -0.04561392962932587, 0.007936173118650913, -0.10099788755178452, 0.10619053989648819, -0.16440631449222565, -0.24978838860988617, 0.3672972321510315, 0.33878567814826965, 0.202269047498703, 0.045001111924648285, 0.22893649339675903, -0.0740228071808815, -0.013810518197715282, -0.0326911136507988, -0.10091013461351395, 0.14474356174468994, -0.3009159564971924, 0.04186908155679703, -0.04671835899353027, 0.02439744397997856, -0.03611930459737778, -0.10913512110710144, 0.09555333852767944, 0.01158325094729662, -0.2507198452949524, 0.14814205467700958, -0.13413386046886444, 0.069830983877182, 0.08415782451629639, 0.14188869297504425, -0.09470954537391663, -0.08681680262088776, 0.03236789628863335, -0.04008914902806282, 0.20375990867614746, -0.07885313779115677, -0.21339677274227142, -0.12638594210147858, -0.06766419112682343, 0.138976588845253, -0.2896769940853119, 0.09724856168031693, -0.19138109683990479, -0.022781232371926308, -0.02240932360291481, 0.030313562601804733, -0.07522297650575638, 0.13695745170116425, -0.027814079076051712, 0.04296102747321129, 0.19271695613861084, 0.13538327813148499, 0.22419512271881104, -0.08367213606834412, -0.09805513173341751, 0.07091917097568512, 0.22837267816066742, -0.18232311308383942, -0.5226150751113892, 0.27129629254341125, -0.0235433392226696, 0.07971759140491486, 0.04542993754148483, -0.18456362187862396, 0.020553290843963623, -0.15260988473892212, -0.05868227407336235, 0.32199525833129883, -0.19134904444217682, -0.040494076907634735, 0.18756963312625885, 0.07895640283823013, -0.18450666964054108, 0.28866392374038696, -0.203338161110878, 0.41570737957954407, 0.3340889811515808, -0.40123072266578674, -0.2120485156774521, -0.07065673917531967, -0.05098128318786621, 0.17512691020965576, 0.27439960837364197, -0.03196687996387482, -0.5844261646270752, 0.19123989343643188, 0.24203108251094818, 0.0820990651845932, -0.11640089005231857, -0.14746136963367462, 0.12459790706634521, -0.2705453634262085, 0.012576433829963207, 0.1724121868610382, 0.17531615495681763, -0.29420730471611023, -0.20397700369358063, 0.1493123471736908, -0.25968703627586365, -0.06612862646579742, -0.008771643042564392, -0.23231805860996246, 0.013101098127663136, -0.14002899825572968, -0.013681318610906601, -0.11385354399681091, -0.3700132966041565, -0.06309156864881516, -0.5738866925239563, -0.14310166239738464, -0.12590192258358002, 0.07082991302013397, -0.17024223506450653, 0.03114430606365204, 0.21927890181541443, 0.1782272309064865, -0.03154037520289421, -0.011234456673264503, 0.24973249435424805], [0.20684796571731567, -0.2432810366153717, -0.08548327535390854, -0.18103022873401642, -0.04145674407482147, -0.21526142954826355, -0.08593830466270447, -0.07118508219718933, 0.03332068398594856, -0.28166207671165466, 0.1679467260837555, 0.1969534307718277, -0.14988674223423004, 0.1233670711517334, -0.24672533571720123, -0.1912803053855896, 0.18505817651748657, -0.18883001804351807, -0.12612344324588776, -0.018361983820796013, 0.1643861085176468, 0.3361469805240631, 0.04630063846707344, -0.2188524305820465, 0.16349907219409943, -1.0085153579711914, 0.12054414302110672, -0.036371514201164246, 0.29782235622406006, 0.1896025538444519, 0.22527514398097992, -0.33014780282974243, 0.09554729610681534, 0.1489945948123932, 0.0012036245316267014, 0.11892419308423996, 0.044556960463523865, 0.19999396800994873, -0.21284501254558563, -0.08584950864315033, 0.04321664199233055, 0.010556736961007118, 0.24059666693210602, -0.016018245369195938, -0.25234028697013855, -0.07232967764139175, 0.12164565175771713, -0.015466266311705112, -0.00640958221629262, 0.26585331559181213, -0.1409492790699005, -0.23789548873901367, -0.05983996018767357, 0.04436589404940605, 0.0024150933604687452, 0.1380622386932373, -0.32368203997612, 0.012188290245831013, -0.09778320789337158, 0.040161337703466415, 0.2764943540096283, 0.12478185445070267, 0.3059897720813751, -0.10166782885789871, -0.06904032826423645, 0.14275088906288147, 0.02432170882821083, 0.10667680203914642, -0.09898076951503754, 0.13237158954143524, 0.2916150987148285, 0.11766283959150314, 0.11412280052900314, 0.02809213288128376, -0.07092620432376862, -0.06056898087263107, 0.1563596874475479, -0.03046155907213688, -0.10685995221138, -0.04203041270375252, -0.07457369565963745, 0.04021139442920685, -0.09127151221036911, 0.09577923268079758, -0.10568083077669144, -0.09648681432008743, 0.015714237466454506, 0.13367345929145813, -0.003492350922897458, 0.145430788397789, 0.03286560997366905, 0.13491815328598022, -0.16809599101543427, -0.34248632192611694, -0.09449425339698792, -0.23044374585151672, 0.038735490292310715, 0.17642247676849365, -0.0481417141854763, 0.17194758355617523, 0.26240846514701843, -0.11793443560600281, -0.5321611762046814, 0.15611831843852997, -0.007521160412579775, -0.09758532792329788, 0.018867917358875275, -0.029641233384609222, -0.13464459776878357, 0.21597710251808167, 0.21262101829051971, 0.03994179517030716, 0.2260611653327942, -0.009495452977716923, 0.17256705462932587, -0.2691984474658966, 0.029715120792388916, -0.0007976680062711239, 0.1597338616847992, 0.10693658143281937, -0.12159758061170578, -0.5133332014083862, -0.08392319083213806, 0.18716400861740112, 0.01623678207397461, 0.0070386165753006935, 0.05442580208182335, -0.14382240176200867], [0.23971256613731384, -0.06914666295051575, -0.1382528394460678, 0.07353176176548004, -0.011864647269248962, 0.1951051950454712, -0.11176504194736481, -0.1546889990568161, -0.28623902797698975, 0.14458465576171875, -0.09900422394275665, 0.3188219368457794, 0.013696473091840744, 0.05946390703320503, -0.3246597945690155, 0.012608068995177746, -0.15373973548412323, -0.19421172142028809, 0.13838142156600952, -0.07355260103940964, 0.0021558119915425777, 0.016253385692834854, 0.02429378032684326, -0.08230766654014587, -0.3030829131603241, 0.04380102828145027, -0.17177540063858032, -0.051136404275894165, -0.02179553359746933, 0.2995910346508026, -0.24921965599060059, 0.0002126543695339933, 0.11456197500228882, 0.18410724401474, -0.056271109730005264, -0.5675767660140991, -0.02542894519865513, 0.09738433361053467, 0.1336517333984375, -0.022683341056108475, -0.0353369265794754, 0.02181462198495865, -0.2781602740287781, 0.09524018317461014, 0.1968322992324829, -0.06719803065061569, -0.3596208393573761, 0.03680725023150444, -0.2600756585597992, -0.013400369323790073, -0.05249139666557312, -0.23157142102718353, 0.0424741692841053, -0.05824229121208191, 0.0980677455663681, 0.37488317489624023, 0.12138670682907104, 0.24824224412441254, -0.024596577510237694, -0.2238379567861557, -0.02989187091588974, -0.17566411197185516, -0.13695822656154633, 0.09577801078557968, -0.08482151478528976, 0.26547685265541077, 0.07810387760400772, -0.008023928850889206, 0.14873985946178436, 0.09374277293682098, -0.20993037521839142, 0.07137367874383926, -0.17554835975170135, -0.14935249090194702, 0.35188573598861694, -0.0773504450917244, -0.031057363376021385, 0.27245044708251953, -0.6961341500282288, 0.3439837396144867, -0.1397399753332138, 0.40203630924224854, -0.06430579721927643, -0.22016865015029907, -0.10681989789009094, -0.09629113972187042, -0.15385161340236664, -0.10610972344875336, 0.1266263723373413, -0.18110843002796173, -0.03457632288336754, -0.10122977942228317, -0.11276311427354813, 0.06536751240491867, -0.06956373900175095, -0.047290559858083725, 0.02705015242099762, -0.039034225046634674, -0.3153708875179291, -0.0034902580082416534, 0.008041270077228546, 0.05925057828426361, 0.12240816652774811, 0.1497809886932373, -0.013083784841001034, 0.22544971108436584, -0.09085128456354141, -0.13038161396980286, -0.8346976041793823, 0.006076246500015259, 0.09559351950883865, -0.15088719129562378, 0.18030919134616852, -0.17229217290878296, -0.19505923986434937, -0.004385382868349552, -0.0043801115825772285, -0.07823971658945084, -0.009671767242252827, -0.20158693194389343, -0.19422559440135956, -0.01936350204050541, 0.0031922166235744953, -0.02840537764132023, 0.16749444603919983, 0.15215738117694855, -0.07047707587480545, 0.07460944354534149], [-0.2362479418516159, 0.16706842184066772, -0.035847172141075134, 0.12627194821834564, -0.22588565945625305, 0.03490011766552925, 0.40151768922805786, -0.033508602529764175, -0.036529455333948135, 0.06004110723733902, -0.07302510738372803, 0.09863465279340744, -0.3633746802806854, 0.0853084996342659, 0.06593776494264603, -0.4386529326438904, -0.21177668869495392, 0.19537831842899323, 0.2889758050441742, 0.08667723089456558, -0.1505633443593979, 0.002263655187562108, 0.013799563981592655, -0.29447513818740845, 0.22533667087554932, -0.029224956408143044, -0.10115105658769608, -0.031532011926174164, 0.06989496946334839, -0.18007495999336243, -0.3779585659503937, -0.10249260067939758, 0.05103076249361038, 0.2666209936141968, -0.2266913652420044, -0.22421665489673615, 0.18639764189720154, 0.20950303971767426, 0.21127504110336304, -0.020696206018328667, 0.006290823221206665, 0.08032810688018799, -0.38285231590270996, 0.2345113307237625, 0.02200528047978878, -0.013286026194691658, 0.03926156833767891, 0.20190441608428955, 0.03076942265033722, -0.06180668622255325, -0.0886676236987114, 0.001382894697599113, 0.07257460057735443, -0.01952708512544632, 0.46691790223121643, -0.14906682074069977, 0.4317112863063812, -0.003144213929772377, 0.09356845170259476, 0.0076734465546905994, 0.18058393895626068, -0.2982291579246521, -0.0041844588704407215, -0.21700173616409302, -0.004692029673606157, -0.04075464606285095, 0.12663838267326355, 0.09248799830675125, 0.3363223671913147, -0.07776667922735214, 0.054247964173555374, 0.18613195419311523, 0.30306845903396606, -0.5539659261703491, -0.007331347092986107, -0.1761815845966339, -0.19922897219657898, 0.08610977977514267, -0.3410036563873291, 0.0636168122291565, -0.05127905681729317, 0.13206565380096436, -0.23601825535297394, 0.1123637780547142, -0.19244776666164398, -0.2175467312335968, 0.03558100759983063, -0.39628878235816956, 0.1538345217704773, -0.11729924380779266, -0.43825164437294006, -0.14244121313095093, 0.2353784590959549, 0.13372574746608734, 0.06421853601932526, 0.01661681942641735, 0.005502593237906694, -0.15967321395874023, 0.4746983051300049, 0.053292810916900635, 0.013453179970383644, 0.37143269181251526, -0.2764958441257477, -0.24885958433151245, 0.04799101501703262, 0.20304183661937714, -0.28243958950042725, 0.44592928886413574, -0.4717763364315033, -0.09831918776035309, -0.11527837812900543, 0.012859395705163479, -0.03892518952488899, 0.09010370075702667, 0.2047354131937027, -0.3954012393951416, 0.11088661104440689, -0.15325815975666046, 0.1074761226773262, -0.016156362369656563, 0.24014227092266083, -0.11008165031671524, -0.015961740165948868, -0.5261480212211609, 0.15134653449058533, -0.0815943256020546, -0.39753127098083496, 0.2245802879333496], [0.0373479425907135, 0.2551298439502716, 0.09133689850568771, 0.06894577294588089, -0.4661465585231781, -0.1921139657497406, -0.2560608983039856, 0.18087859451770782, 0.05181174352765083, -0.013404421508312225, -0.033148687332868576, -0.027491480112075806, -0.08855344355106354, -0.2745601534843445, 0.17335417866706848, -0.12850825488567352, -0.1438562422990799, -0.12371920049190521, -0.1400298923254013, 0.1284923106431961, 0.02626120112836361, 0.20359818637371063, 0.2204289436340332, 0.2445404976606369, 0.08899185061454773, 0.15143173933029175, 0.05943633243441582, 0.08423309773206711, -0.05172896385192871, 0.06899460405111313, 0.16244779527187347, 0.051790229976177216, -0.14037081599235535, -0.1271308809518814, -0.5703892111778259, -0.2670351564884186, -0.11639091372489929, -0.42737939953804016, 0.02657170780003071, 0.236637145280838, -0.10671670734882355, -0.03253784030675888, 0.08880340307950974, -0.06846942007541656, 0.2585662305355072, 0.2667349576950073, 0.15534698963165283, -0.06923165917396545, 0.15813541412353516, 0.17765361070632935, -0.0564560703933239, 0.15919795632362366, 0.1423354297876358, 0.09490659087896347, -0.04164154827594757, -0.23533359169960022, 0.004986320622265339, -0.056133244186639786, 0.25899872183799744, -0.030338849872350693, 0.1638871133327484, -0.256428062915802, -0.3449339270591736, -0.04300590232014656, -0.16030558943748474, 0.39240920543670654, 0.3198374807834625, -0.06903351098299026, -0.14824892580509186, 0.08371569216251373, 0.005199749022722244, 0.034671083092689514, -0.526953399181366, -0.25701311230659485, 0.1360190510749817, -0.03986191749572754, -0.1030917540192604, -0.03880241513252258, 0.26544830203056335, 0.17700238525867462, 0.3918176293373108, -0.0961119532585144, -0.23710869252681732, 0.02244049310684204, -0.11044369637966156, 0.2745463252067566, 0.169426828622818, 0.3391823172569275, -0.16927574574947357, -0.2261388599872589, -0.07808945327997208, -1.0823915004730225, -0.012609362602233887, 0.0051827519200742245, -0.12203188985586166, -0.16680744290351868, 0.21175356209278107, -0.3319670855998993, -0.4100456237792969, 0.22272126376628876, -0.28506189584732056, 0.04576443135738373, -0.2379601001739502, -0.33919069170951843, 0.03774309530854225, 0.10489533096551895, -0.14382807910442352, -0.20960396528244019, -0.04937257245182991, -0.15545377135276794, -0.3432382643222809, -0.11372792720794678, 0.02938411571085453, -0.03824666142463684, -0.24383065104484558, -0.09341627359390259, -0.03210354223847389, 0.14659768342971802, 0.2981518805027008, 0.24369965493679047, -0.10348197817802429, 0.17177750170230865, 0.20379844307899475, -0.3278926610946655, -0.31881165504455566, 0.11819850653409958, -0.39211851358413696, 0.09932170063257217], [-0.08946909010410309, -0.0032633699011057615, -0.24130313098430634, -0.009412141516804695, -0.11665758490562439, 0.0019342133309692144, 0.38155609369277954, 0.1563418060541153, 0.03376326709985733, 0.1729019731283188, 0.09698124974966049, -0.24512214958667755, 0.1680983603000641, -0.06312877684831619, -0.03807567059993744, 0.09384353458881378, 0.17069238424301147, 0.08079016208648682, -0.017389636486768723, 0.12999969720840454, -0.03624524921178818, 0.08526866883039474, -0.006484146695584059, -0.1802445650100708, -0.006959107238799334, 0.2689327597618103, -0.05680075287818909, -0.03345371037721634, -0.017550446093082428, -0.006084803957492113, 0.022373128682374954, -0.015010965056717396, -0.348233699798584, -0.015294544398784637, 0.23795916140079498, -0.27827706933021545, 0.17180807888507843, 0.0023194821551442146, -0.04024244844913483, 0.06864979863166809, -0.00753958523273468, 0.11326498538255692, 0.28408047556877136, -0.24378937482833862, -0.10516916215419769, -0.3711773157119751, -0.018809853121638298, -0.04599067568778992, 0.0611877404153347, -0.13244877755641937, -0.007032616995275021, 0.32210519909858704, 0.17238502204418182, 0.06260854005813599, -0.17514577507972717, 0.0386960469186306, 0.2707441449165344, -0.030899178236722946, -0.09984500706195831, -0.5220990180969238, 0.07688847184181213, -0.20152051746845245, 0.2542147934436798, -0.08921309560537338, -0.2143956869840622, -0.08186085522174835, 0.12428655475378036, 0.10317766666412354, -0.32730117440223694, 0.09832538664340973, 0.0630829855799675, 0.06852845102548599, 0.14361132681369781, 0.045081429183483124, -0.3307357728481293, -0.013921517878770828, -0.09101191908121109, -0.3743446469306946, -0.36646297574043274, -0.06522966921329498, -0.2170565128326416, -0.5557956099510193, 0.31714075803756714, -0.2460028976202011, -0.054681796580553055, -0.12391606718301773, -0.15901370346546173, -0.2616654932498932, 0.04120860993862152, -0.017655471339821815, 0.34623751044273376, -0.3794599771499634, -0.28108885884284973, 0.06522862613201141, 0.291268527507782, 0.14173322916030884, -0.18172934651374817, 0.04300970584154129, -0.39999082684516907, 0.027759527787566185, -0.11569718271493912, -0.045689214020967484, 0.1045529916882515, 0.059303849935531616, -0.24422506988048553, -0.14319106936454773, 0.016816936433315277, -0.23265361785888672, -0.0016583066899329424, -0.1034742221236229, -0.04903551563620567, 0.09222203493118286, -0.2309749871492386, -0.16624419391155243, -0.2473737895488739, 0.12437708675861359, 0.160041943192482, 0.28136903047561646, 0.12474286556243896, 0.22023987770080566, 0.3181475102901459, -0.23367813229560852, 0.11082172393798828, 0.07650463283061981, -0.110507071018219, -0.0916435718536377, -0.36090633273124695, -0.03990154340863228], [0.13503222167491913, -0.34413594007492065, -0.08123589307069778, 0.0843522697687149, -0.11098001152276993, -0.07737824320793152, -0.08958905190229416, 0.01083358470350504, 0.13486380875110626, -0.006743317469954491, -0.04932793974876404, 0.1726350337266922, -0.22422245144844055, 0.008213319815695286, -0.15531589090824127, -0.25511494278907776, -0.24567458033561707, -0.14161010086536407, -0.22831764817237854, -0.13427262008190155, 0.13018865883350372, -0.22193263471126556, 0.0118098184466362, -0.2076851725578308, 0.12496292591094971, 0.08087468892335892, 0.40421751141548157, -0.0474008210003376, 0.04403506964445114, 0.028414662927389145, 0.3163110017776489, 0.10759388655424118, 0.06538770347833633, -0.0062547717243433, -0.11075086146593094, 0.0291968435049057, 0.019694196060299873, 0.038431063294410706, -0.35169124603271484, 0.04871758446097374, -0.013624739833176136, 0.044566284865140915, 0.21274219453334808, -0.09421145170927048, 0.057881321758031845, -0.06864913552999496, -0.02633577398955822, -0.009227055124938488, -0.0797206312417984, 0.24414373934268951, 0.21875980496406555, 0.03872906044125557, -0.016150906682014465, -0.038067348301410675, -0.03736042231321335, 0.19448257982730865, 0.1872633397579193, 0.0006080326857045293, -0.2463362216949463, -0.5676844120025635, 0.05672163888812065, -0.19711148738861084, 0.04946469888091087, -0.18467700481414795, -0.03438088670372963, 0.06098344922065735, 0.1343759447336197, -0.1359715759754181, -0.18686822056770325, -0.027737265452742577, 0.11336818337440491, 0.012286325916647911, -0.03825775161385536, 0.03838006407022476, -0.19277352094650269, -0.22455595433712006, 0.027741538360714912, -0.25539156794548035, -0.19832465052604675, -0.12078769505023956, -0.021400758996605873, -0.10827817022800446, -0.05796930566430092, 0.021225133910775185, 0.1004742681980133, -0.010369451716542244, -0.03279422968626022, -0.052160125225782394, 0.00331327086314559, 0.2425510585308075, 0.06229480355978012, 0.1424110233783722, 0.06996370851993561, -0.08416604995727539, -0.22622190415859222, -0.020832663401961327, -0.34865108132362366, -0.19878186285495758, -0.04023187980055809, -0.11823630332946777, -0.09736909717321396, -0.15188895165920258, -0.16504092514514923, 0.052071817219257355, -0.05893969535827637, -0.22287142276763916, 0.019938640296459198, 0.05793009325861931, -0.11925304681062698, 0.0519958958029747, 0.45367562770843506, -0.03141330927610397, 0.2323625683784485, -0.029093287885189056, 0.07047569751739502, 0.09600818157196045, 0.08695171773433685, 0.15758737921714783, 0.08944673091173172, 0.049243707209825516, -0.09949245303869247, 0.08115245401859283, -0.20771323144435883, 0.15012392401695251, 0.022762535139918327, 0.2242608666419983, -0.07136063277721405, -0.03092242032289505], [0.2615219056606293, -0.7626384496688843, -0.030688239261507988, -0.05279669910669327, 0.24332860112190247, 0.012832201085984707, 0.06598981469869614, -0.09887626022100449, -0.18436624109745026, 0.2598346471786499, -0.05345480889081955, 0.259356826543808, -0.032173268496990204, 0.17756281793117523, 0.17391712963581085, 0.07487114518880844, -0.1290338784456253, -0.16382832825183868, 0.06944763660430908, 0.076517753303051, 0.1331968605518341, -0.049055133014917374, 0.06682507693767548, -0.0420900322496891, -0.25069108605384827, -0.05109686404466629, -0.24282312393188477, 0.000399142736569047, 0.08168580383062363, -0.0318184532225132, -0.2110445201396942, 0.018045969307422638, -0.3898880183696747, -0.0018025290919467807, -0.057534024119377136, -0.07831951230764389, -0.15085236728191376, 0.16324955224990845, 0.11897726356983185, 0.3279516100883484, -0.1503058671951294, 0.003241913393139839, 0.056989703327417374, 0.09644487500190735, 0.018569983541965485, -0.07530976831912994, -0.12031193822622299, 0.15237107872962952, -0.3370320498943329, 0.042235925793647766, -0.1372508853673935, -0.17244337499141693, -0.15445572137832642, -0.027785224840044975, -0.022556664422154427, 0.30851757526397705, -0.005227726884186268, 0.2948966324329376, -0.7583770751953125, -0.2550361454486847, -0.2514798641204834, 0.13891613483428955, -0.1726538985967636, 0.2659754455089569, -0.05065397173166275, 0.07421009242534637, -0.0976504236459732, -0.2823103964328766, 0.17228275537490845, 0.0970907062292099, -0.08394188433885574, -0.021153464913368225, -0.16430190205574036, 0.004734746180474758, 0.2012144774198532, 0.049355536699295044, -1.6682373825460672e-05, 0.17183546721935272, -0.0980435386300087, 0.24965372681617737, -0.07327734678983688, 0.012075326405465603, 0.06346482783555984, 0.1388244330883026, 0.033658239990472794, -0.3171736001968384, -0.7852983474731445, -0.06103038787841797, -0.9844070076942444, -0.14910084009170532, 0.023749306797981262, -0.023618118837475777, -0.008853712119162083, -0.016413850709795952, -0.0839354619383812, 0.014893918298184872, 0.08463335782289505, -0.3119751214981079, 0.06617965549230576, 0.19901666045188904, -0.10718921571969986, 0.11947865784168243, -0.06255007535219193, 0.09927982091903687, 0.1472371369600296, 0.0701569989323616, 0.16796939074993134, 0.015749234706163406, 0.16480447351932526, -0.04140515998005867, -0.1987929791212082, -0.36548852920532227, 0.16178622841835022, -0.04017554596066475, -0.8051884174346924, 0.06544322520494461, -0.03458750620484352, -0.08358112722635269, -0.4099239110946655, -0.14721086621284485, -0.2952113449573517, -0.03621045500040054, 0.0488312691450119, 0.025871645659208298, 0.07713203132152557, -0.4311468005180359, 0.14434388279914856, 0.24894458055496216], [-0.34118586778640747, -0.27521079778671265, -0.09413661807775497, 0.04133329167962074, 0.04798206314444542, 0.1458364576101303, -0.09278657287359238, -0.02592342719435692, -0.032917097210884094, 0.3304138779640198, 0.18829312920570374, -0.03303389623761177, 0.13369053602218628, 0.21335473656654358, -0.17728137969970703, -0.24456126987934113, -0.2413809895515442, 0.11542082577943802, 0.2575102746486664, -0.08329156041145325, -0.08949048072099686, 0.08755563944578171, 0.15890076756477356, -0.11861730366945267, 0.07584065198898315, -0.09780338406562805, -0.06558529287576675, -0.6510434150695801, 0.30429592728614807, -0.2203877568244934, -0.3646855354309082, -0.5170271992683411, -0.09128417819738388, 0.19329878687858582, -0.24098548293113708, 0.21579816937446594, -0.20349951088428497, -0.07266189903020859, 0.24733634293079376, 0.04346388950943947, -0.1526559442281723, 0.09996002167463303, 0.08149710297584534, -0.03263971209526062, -0.06321648508310318, -0.0700896605849266, 0.14288099110126495, 0.3624081611633301, 0.14530403912067413, -0.4262112081050873, 0.08040272444486618, -0.17768436670303345, -0.7073079347610474, 0.07116596400737762, 0.17517220973968506, -0.0924626961350441, 0.11154430359601974, 0.04664766788482666, -0.6066083312034607, -0.07218753546476364, -0.22248677909374237, 0.15668733417987823, -0.42244571447372437, -0.09076379239559174, -0.13095441460609436, -0.1256348192691803, -0.20574432611465454, -0.189753919839859, 0.14281392097473145, -0.0038086860440671444, 0.1760215014219284, 0.05354280769824982, 0.31590473651885986, 0.3155912160873413, -0.07704908400774002, 0.14963945746421814, 0.07288549095392227, 0.12099901586771011, -0.13434262573719025, 0.2390969693660736, -0.38145431876182556, 0.07325632870197296, -0.10574308782815933, -0.009747586213052273, -0.17651554942131042, -0.0626266822218895, 0.2571612000465393, -0.045054953545331955, -0.45741450786590576, -0.17300723493099213, -0.4805428981781006, -0.12452470511198044, 0.1810612678527832, -0.4998960793018341, 0.04063451662659645, 0.06364079564809799, -0.5987662076950073, 0.07735808938741684, 0.26346102356910706, 0.383540540933609, 0.1318802833557129, 0.2335107922554016, -0.00906401127576828, 0.370122492313385, 0.19939051568508148, 0.4638036787509918, -0.1845247596502304, 0.4181749224662781, -0.08692243695259094, -0.2550225853919983, -0.1427363008260727, -0.17027512192726135, -0.1841658055782318, 0.3238222301006317, -0.13234423100948334, -0.1477307230234146, -0.3076317608356476, -0.032488249242305756, -0.13768886029720306, 0.18163827061653137, 0.16367898881435394, 0.07082077860832214, 0.11369840800762177, 0.06512510776519775, -0.051854100078344345, 0.14872854948043823, -0.018246421590447426, -0.21443651616573334], [0.12767454981803894, 0.17768730223178864, 0.4415590465068817, 0.09423226118087769, -0.01581757701933384, -0.030628502368927002, 0.020841063931584358, 0.11685674637556076, 0.3940489888191223, 0.32673925161361694, 0.23362189531326294, 0.05370446294546127, -0.09563155472278595, 0.14422205090522766, -0.4142584502696991, -0.12588562071323395, -0.29547566175460815, -0.12631627917289734, -0.0903826579451561, 0.24733440577983856, 0.03301401808857918, 0.0012180597987025976, 0.03869013488292694, 0.10195726901292801, 0.17092572152614594, -0.2649631202220917, -0.3072533905506134, 0.13617877662181854, -0.12858609855175018, 0.01923244632780552, 0.043003425002098083, 0.011401571333408356, 0.04535730183124542, 0.10279896855354309, -0.20613881945610046, -0.12405212223529816, -0.5577796697616577, -0.22100086510181427, 0.0385894812643528, -0.1142621636390686, -0.1927345097064972, 0.14308050274848938, 0.09127600491046906, 0.12811477482318878, 0.0764775276184082, 0.21630336344242096, -0.03873894363641739, -0.06850557774305344, 0.21317020058631897, 0.07733199745416641, -0.4352836310863495, -0.0980365127325058, -0.47156277298927307, 0.0963209941983223, 0.24243107438087463, -0.24347327649593353, -0.08815617114305496, 0.19904446601867676, 0.03234201669692993, 0.09292790293693542, 0.11348111182451248, 0.24452199041843414, -0.3709307014942169, 0.09533613175153732, 0.3069787919521332, -0.19284014403820038, -0.4977094531059265, 0.13178439438343048, -0.27359429001808167, 0.01743733137845993, -0.1235533356666565, -0.07710421830415726, -0.34174326062202454, 0.15200969576835632, 0.16513659060001373, 0.09178773313760757, 0.06765978038311005, -0.11231838911771774, 0.155848428606987, 0.041627753525972366, 0.10196144878864288, -0.020684238523244858, -0.27672040462493896, -0.005225933622568846, 0.19197586178779602, 0.0869763195514679, -0.27875009179115295, 0.10528964549303055, -0.2661762237548828, 0.04404933750629425, -0.26375967264175415, 0.11859971284866333, -0.04759077727794647, -0.3774380087852478, -0.1786070466041565, -0.19939790666103363, -0.38983842730522156, -0.26309940218925476, -0.20380376279354095, 0.18112805485725403, -0.2226717621088028, 0.011251923628151417, -0.05707080662250519, -0.42363134026527405, 0.14991064369678497, -0.3524602949619293, -0.4785577654838562, -0.31454336643218994, -0.06639101356267929, 0.2999297082424164, -0.1735609620809555, 0.3522951900959015, 0.07448749989271164, 0.19756153225898743, -0.10470129549503326, -0.2797180116176605, 0.4206172227859497, 0.051826879382133484, 0.16997486352920532, 0.09893356263637543, -0.014263120479881763, 0.014402120374143124, 0.23625430464744568, -0.035604048520326614, 0.08504471927881241, -0.45058056712150574, 0.20498833060264587, -0.3756367862224579], [-0.01846133917570114, -0.05185851454734802, -0.2246522307395935, 0.20962320268154144, -0.02687464840710163, 0.05067918077111244, -0.02093420922756195, 0.1301918625831604, 0.2126588374376297, -0.058007869869470596, -0.18620866537094116, -0.0402727946639061, 0.33321020007133484, -0.24925538897514343, -0.23722097277641296, 0.152483269572258, -0.16591230034828186, 0.024190399795770645, -0.0385250560939312, -0.17218659818172455, 0.0476561114192009, -0.15073885023593903, -0.0011715302243828773, 0.29791197180747986, 0.04835247993469238, -0.014454883523285389, 0.004552542231976986, 0.12999053299427032, -0.19399338960647583, -0.06627006083726883, -0.008382231928408146, -0.09866025298833847, -0.43858715891838074, -0.11397197097539902, 0.3346497118473053, -0.09539976716041565, -0.48648181557655334, -0.1184343472123146, 0.08640250563621521, -0.3377144932746887, -0.13345447182655334, 0.03046221099793911, 0.16746008396148682, -0.1839662343263626, -0.20325568318367004, -0.2551274299621582, -0.3038414716720581, -0.07779237627983093, 0.04065900295972824, -0.20659679174423218, -0.6191092133522034, 0.4086307883262634, -0.0722109004855156, 0.08263026177883148, 0.0024909295607358217, -0.26733341813087463, 0.009136985056102276, -0.0005484240828081965, 0.06558799743652344, 0.16786889731884003, 0.23855502903461456, 0.08309006690979004, -0.05588807165622711, -0.1627432256937027, -0.06041407585144043, 0.2032676786184311, -0.1733800619840622, 0.03974374011158943, -0.2046060711145401, 0.0319799929857254, -0.048892516642808914, -0.007117589935660362, 0.13756413757801056, -0.08643696457147598, -0.39252641797065735, -0.10679367184638977, 0.07848934084177017, -0.29998698830604553, -0.24524977803230286, -0.2848607003688812, -0.25205564498901367, -0.09722934663295746, 0.34590184688568115, -0.3247736692428589, -0.21139241755008698, -0.06917434185743332, 0.02702021226286888, -0.13708621263504028, 0.19225023686885834, 0.17185822129249573, 0.17425473034381866, 0.08755173534154892, -0.24932028353214264, -0.06278664618730545, 0.24258680641651154, -0.019900469109416008, 0.040584687143564224, 0.01225741021335125, -0.31871992349624634, -0.1285575032234192, 0.2420518845319748, -0.18079693615436554, 0.09869245439767838, -0.3718438446521759, -0.012697565369307995, -0.39311182498931885, -0.21540510654449463, -0.010297094471752644, -0.03725506737828255, 0.08169566094875336, 0.047253288328647614, 0.2684921622276306, -0.21991628408432007, 0.28726842999458313, -0.2531777024269104, 0.0726383849978447, -0.5389795303344727, 0.12843184173107147, 0.2367156594991684, -0.44746658205986023, 0.27294617891311646, -0.1182074099779129, 0.08413364738225937, 0.3233284056186676, 0.2944302558898926, 0.08200935274362564, -0.29704952239990234, 0.2108393907546997], [0.16719883680343628, -0.08725959062576294, -0.17893263697624207, -0.06153595447540283, -0.1966649442911148, 0.13525353372097015, 0.09948373585939407, 0.09024545550346375, 0.17357401549816132, 0.06872748583555222, -0.5072067975997925, 0.05308036878705025, -0.24996671080589294, -0.27227362990379333, -0.03322422504425049, -0.025965804234147072, -0.0967467725276947, -0.1329682618379593, -0.22229497134685516, 0.006740025244653225, 0.13577426970005035, -0.38155397772789, 0.07461538910865784, -0.035584140568971634, 0.13144809007644653, 0.039264239370822906, 0.14003941416740417, 0.04302816092967987, 0.054594773799180984, -0.027389412745833397, 0.3295609652996063, 0.025167465209960938, 0.0643823891878128, -0.23405170440673828, 0.18675512075424194, 0.036005038768053055, -0.09314524382352829, 0.12675198912620544, -0.3084033131599426, 0.16488823294639587, -0.013304084539413452, 0.014176499098539352, 0.03395996242761612, -0.05803532898426056, 0.092655248939991, -0.22424866259098053, -0.07790490239858627, -0.03438138961791992, -0.05158059298992157, 0.2403053641319275, 0.2589947581291199, 0.0639786496758461, 0.13444511592388153, 0.023014010861516, 0.001380092347972095, -0.0330570749938488, -0.07893412560224533, 0.09092562645673752, -0.05463654175400734, 0.12168850004673004, -0.03388748690485954, 0.09465551376342773, -0.15020912885665894, -0.28080838918685913, 0.1179405003786087, -0.11310810595750809, -0.12909658253192902, -0.022248167544603348, -0.03662053123116493, 0.012210682034492493, 0.14627480506896973, 0.04123087227344513, -0.284418523311615, -0.099135622382164, -0.1549408733844757, -0.13956007361412048, -0.0026368151884526014, -0.2042778581380844, -0.09455732256174088, -0.26106756925582886, -0.33795976638793945, -0.03161066025495529, -0.07598084956407547, 0.043110523372888565, 0.22041146457195282, -0.07833664119243622, -0.08528775721788406, -0.18843218684196472, -0.14391089975833893, 0.4191720485687256, -0.018091730773448944, -0.0037868842482566833, -0.061082951724529266, 0.086931012570858, -0.05925162881612778, -0.20499543845653534, 0.08061269670724869, -0.17608532309532166, -0.07739346474409103, -0.3295443058013916, -0.016926830634474754, -0.09422215819358826, 0.09650209546089172, 0.1160227507352829, -0.06192304193973541, -0.1060146912932396, -0.059368621557950974, -0.019805723801255226, -0.21997782588005066, 0.2681179344654083, 0.4610527753829956, 0.18420828878879547, 0.13443435728549957, -0.12681348621845245, 0.04860590398311615, 0.18416549265384674, -0.07161741703748703, -0.16335240006446838, -0.040524035692214966, -0.3396962583065033, -0.067475825548172, 0.12415315210819244, -0.009414689615368843, -0.021389532834291458, 0.00816633552312851, -0.20059242844581604, -0.0917588621377945, -0.09226477891206741]], "b": [-0.1430310606956482, 0.019667042419314384, 0.26427581906318665, -0.4352564513683319, -0.1379726678133011, -0.03657868877053261, 0.2308630794286728, -0.40312084555625916, -0.2862793803215027, -0.0790414959192276, -0.22535035014152527, 0.1140173077583313, 0.20597100257873535, 0.11978533864021301, 0.16247695684432983, -0.019115231931209564, 0.07996197789907455, -0.21171323955059052, -0.1565500646829605, -0.38952818512916565, -0.3499027490615845, 0.08477726578712463, -0.5273995399475098, 0.1803371012210846, -0.4541546702384949, 0.08338029682636261, -0.20918869972229004, 0.08885620534420013, -0.33974316716194153, -0.12737761437892914, -0.1540839523077011, 0.09211324155330658, 0.16201414167881012, 0.05166824907064438, 0.16860239207744598, 0.2653992474079132, 0.1333576887845993, 0.3336654007434845, -0.23559048771858215, -0.2772137522697449, -0.011091901920735836, -0.5144227147102356, -0.2353876382112503, -0.05381901189684868, -0.36452987790107727, 0.05928341671824455, 0.2880837321281433, -0.2670350968837738, -0.30576327443122864, -0.11068794131278992, -0.05820423364639282, 0.08732831478118896, 0.1571868509054184, 0.12808015942573547, -0.1628512740135193, 0.040150243788957596, 0.040125370025634766, 0.1887175440788269, 0.03037576749920845, 0.0396529845893383, -0.3040856420993805, 0.04751727730035782, 0.08683241903781891, -0.14550907909870148, 0.12023492157459259, -0.15589576959609985, -0.23071229457855225, 0.006950976327061653, 0.06512017548084259, -0.4323197305202484, -0.13440892100334167, -0.4545336365699768, 0.08406076580286026, -0.20405827462673187, -0.15612293779850006, -0.0032606455497443676, 0.10849190503358841, 0.02366783283650875, 0.04261195287108421, -0.014084327965974808, 0.2183498740196228, -0.09451170265674591, 0.11193864792585373, 0.31437429785728455, 0.14408646523952484, 0.05943175405263901, 0.17097210884094238, -0.19448032975196838, 0.09310959279537201, -0.19660808145999908, 0.009420092217624187, -0.1500508189201355, 0.15724144876003265, -0.17542023956775665, -0.24331042170524597, -0.17588546872138977, 0.05078287422657013, 0.07400000095367432, 0.12636500597000122, -0.10017572343349457, 0.22426460683345795, -0.2558182179927826, 0.22435905039310455, 0.09368672966957092, 0.1504725068807602, -0.15263700485229492, -0.0416882298886776, 0.07437680661678314, 0.22755728662014008, -0.18815545737743378, -0.14243309199810028, 0.017253020778298378, -0.07860882580280304, 0.1368284672498703, 0.10335103422403336, 0.05342896655201912, -0.014490729197859764, -0.20115144550800323, -0.18395207822322845, -0.05378669872879982, -0.3258712887763977, 0.1264062225818634, -0.4883136451244354, -0.041581977158784866, -0.28464779257774353, 0.22021247446537018, 0.054839737713336945, -0.23073554039001465]}, {"w": [[-0.30455490946769714, 0.16315202414989471, 0.06649021804332733, -0.03415388986468315, 0.19046629965305328, -0.30068621039390564, 0.37009069323539734, 0.1478963941335678, -0.15944337844848633, 0.13820816576480865, -0.03401673212647438, -0.8737436532974243, 0.06954395771026611, -0.04692598432302475, 0.07734937965869904, -0.08938944339752197, 0.09414829313755035, 0.10274815559387207, -0.06315993517637253, 0.0004689004272222519, 0.14468112587928772, 0.11370521783828735, -0.03725966066122055, 0.036450594663619995, 0.023534856736660004, 0.044490355998277664, 0.06920982897281647, -0.29626941680908203, -0.25267741084098816, 0.004279774613678455, -0.05113888904452324, -0.017573576420545578, 0.03251876309514046, 0.0572863444685936, 0.022990697994828224, -0.1605251431465149, 0.07547289878129959, 0.08303084224462509, -0.009431607089936733, 0.15720364451408386, 0.1404697299003601, 0.10409834235906601, -0.17682939767837524, -0.08445260673761368, 0.08293705433607101, 0.09181633591651917, 0.14028391242027283, -0.5620403289794922, 0.08913768827915192, -0.7897788882255554, 0.1118173599243164, 0.00017694098642095923, 0.17960508167743683, -0.13954401016235352, 0.05253785476088524, 0.2811436057090759, -0.11799986660480499, -0.12936969101428986, -0.04473321512341499, 0.12501674890518188, 0.10651647299528122, -0.06702518463134766, 0.03370578587055206, 0.030484437942504883], [0.09081660956144333, -0.44812414050102234, -0.254071444272995, -0.029190195724368095, -0.5338385701179504, 0.33637264370918274, -0.006296688225120306, -0.25749871134757996, -0.5688098669052124, -0.1459670513868332, 0.32917943596839905, -0.16766740381717682, -0.11720038950443268, -0.11204130947589874, -0.057461898773908615, 0.04529513046145439, 0.25939005613327026, -0.06500481814146042, -0.34611400961875916, 0.1187579333782196, -0.26489728689193726, -0.4333367645740509, -0.29733628034591675, -0.10711930692195892, -0.3376843333244324, -0.10510962456464767, 0.18271073698997498, -0.13221359252929688, -0.016071094200015068, 0.09383721649646759, 0.14038553833961487, 0.11540080606937408, -0.17679649591445923, -0.1476031094789505, -0.032488975673913956, -0.05084357410669327, -0.13266026973724365, 0.39762410521507263, 0.4848397672176361, -0.7352514266967773, -0.3561026155948639, -0.018781455233693123, -0.16005446016788483, 0.03237694874405861, -0.2672227621078491, 0.22677966952323914, 0.029869986698031425, 0.4607084095478058, 0.09180275350809097, 0.008363386616110802, -0.217570498585701, -0.0009909092914313078, 0.029674753546714783, -0.22543630003929138, 0.2719660997390747, -0.0486549437046051, -0.053049150854349136, 0.38456469774246216, -0.11801629513502121, 0.09512695670127869, 0.3180144429206848, 0.1834140419960022, -0.2141161412000656, -0.2789517939090729], [0.20919805765151978, -0.39739784598350525, -0.0852198600769043, -0.470794677734375, -0.3778766989707947, 0.5257953405380249, -0.21289965510368347, -0.16732323169708252, 0.21667496860027313, -0.04568083956837654, 0.04536217451095581, -0.6871561408042908, 0.338358998298645, 0.05295325443148613, -0.22902703285217285, -0.02669711783528328, -0.46712273359298706, -0.06908519566059113, 0.062380101531744, -0.41426634788513184, -0.2808937728404999, -0.13056714832782745, 0.12568357586860657, 0.1379353255033493, -0.19174015522003174, 0.2019248753786087, 0.12656575441360474, -0.16980524361133575, 0.0038063444662839174, -0.07743650674819946, 0.11766516417264938, 0.21822354197502136, 0.0029912982136011124, 0.3674671947956085, -0.6134907603263855, -0.182729572057724, 0.08397884666919708, 0.10247861593961716, -0.27503588795661926, -0.26955389976501465, -0.25044143199920654, 0.03876626864075661, 0.05778254568576813, 0.23748791217803955, 0.08942102640867233, -0.191131129860878, 0.32146763801574707, 0.32986587285995483, -0.1940351128578186, -0.9620247483253479, -0.24560222029685974, -0.07551655173301697, -0.1309221386909485, 0.21996837854385376, 0.20260527729988098, -0.09687360376119614, 0.009717801585793495, 0.2403794229030609, 0.09256883710622787, -0.38531526923179626, 0.1608358472585678, 0.024809565395116806, 0.08313441276550293, -0.2873254418373108], [0.04016880691051483, 0.07728476077318192, -0.05263478308916092, 0.0922367125749588, -0.5100669264793396, 0.0248534195125103, 0.16176702082157135, 0.03864508122205734, -0.39647677540779114, -0.043767161667346954, -0.00417198333889246, 0.23440532386302948, -0.09532328695058823, 0.08128906041383743, 0.030164867639541626, -0.000322401465382427, 0.10269123315811157, 0.061909206211566925, 0.04767850786447525, -0.09184947609901428, 0.15696662664413452, 0.21468855440616608, 0.21034060418605804, 0.11364570260047913, 0.2606739401817322, 0.13174618780612946, 0.08193143457174301, 0.09538159519433975, 0.22231027483940125, 0.049097079783678055, 0.002421104349195957, 0.1317194551229477, 0.17732597887516022, 0.0970718041062355, 0.05795357748866081, 0.06553171575069427, -0.1280624270439148, -0.13870730996131897, 0.04775049537420273, 0.2759995460510254, 0.05758675932884216, 0.07715260982513428, -0.2051866203546524, 0.14329250156879425, -0.019634654745459557, -0.12052879482507706, -0.06395652145147324, -0.09442681819200516, 0.0778183713555336, 0.08318770676851273, 0.05054282769560814, -0.052187323570251465, -0.0018328261794522405, -0.12878800928592682, 0.10193552076816559, 0.12332640588283539, -0.0711592510342598, 0.10667350143194199, 0.008853497914969921, 0.012646994553506374, -0.10162057727575302, 0.11091972142457962, -0.5270427465438843, 0.11569434404373169], [-0.05613335967063904, 0.1484484076499939, 0.4853355884552002, -0.23482902348041534, -0.15575961768627167, 0.193494975566864, -0.056882526725530624, 0.46608966588974, 0.27205801010131836, 0.3597817122936249, -0.14340689778327942, -0.6507200598716736, -0.027798403054475784, -0.14331993460655212, -0.24967017769813538, -0.33384883403778076, -0.37542325258255005, 0.19632184505462646, 0.14194796979427338, 0.19117040932178497, -0.05473087728023529, 0.27089723944664, 0.15753190219402313, -0.15931124985218048, 0.1507187783718109, 0.09926091879606247, 0.04662037268280983, 0.14068222045898438, 0.3496769070625305, -0.11731341481208801, -0.3434921205043793, -0.5744355916976929, -0.25048425793647766, 0.18092335760593414, -0.016718003898859024, 0.061518557369709015, 0.2952806353569031, -0.008889473974704742, -0.23641477525234222, -0.42913204431533813, 0.04754696413874626, 0.4633735120296478, 0.21466059982776642, 0.016656283289194107, 0.39177778363227844, -0.21742451190948486, -0.30691036581993103, 0.09002088755369186, -0.03805489093065262, -0.16372328996658325, -0.24291905760765076, 0.607520580291748, -0.48318302631378174, 0.037840407341718674, 0.35655373334884644, 0.28535979986190796, 0.05353326350450516, -0.23456163704395294, -0.24556705355644226, -0.2608638107776642, 0.05885078012943268, -0.025142882019281387, -0.42153748869895935, -0.12524010241031647], [-0.1809101104736328, 0.016088832169771194, -0.06840615719556808, -0.11026868969202042, -0.04178178682923317, 0.09205909073352814, -0.14011308550834656, 0.17115597426891327, -0.016359053552150726, -0.2882557213306427, -0.22432327270507812, -0.13206157088279724, 0.13018672168254852, -0.27229130268096924, -0.5339087843894958, 0.09621657431125641, -0.10315924882888794, -0.06562360376119614, 0.158447265625, -0.43384042382240295, 0.12879303097724915, 0.3564438819885254, 0.2250441461801529, 0.32775723934173584, 0.10248018801212311, 0.14288248121738434, -0.019213344901800156, -0.19234663248062134, -0.33319681882858276, 0.09639102965593338, -0.1517273187637329, -0.05736379325389862, 0.10709428042173386, 0.2541534900665283, -0.4608503580093384, -0.30708613991737366, 0.00026253043324686587, 0.09544481337070465, -0.2794548571109772, 0.05446549504995346, 0.24013149738311768, -0.05996314808726311, 0.15936177968978882, 0.22252273559570312, 0.007943261414766312, -0.2827341854572296, 0.13001972436904907, 0.07892356812953949, -0.13941551744937897, -0.4419443905353546, -0.28088298439979553, -0.03519999608397484, -0.16889257729053497, 0.36133870482444763, 0.19493871927261353, -0.5011650919914246, 0.13532665371894836, -0.49547237157821655, -0.19628052413463593, -0.05274235084652901, -0.20722748339176178, -0.4786822497844696, 0.17980915307998657, 0.3644189238548279], [0.4041377604007721, 0.2322404682636261, -0.24748341739177704, 0.04430357366800308, 0.32384252548217773, 0.21261996030807495, -0.08991064131259918, 0.06904298067092896, 0.3262496888637543, -0.04117719084024429, 0.10290057212114334, 0.1355704963207245, 0.44388964772224426, 0.15246590971946716, 0.2020353078842163, -0.06949417293071747, -0.4398573935031891, -0.39242756366729736, -0.06699910759925842, -0.26190638542175293, -0.24636515974998474, 0.09482232481241226, -0.05745025351643562, -0.011006553657352924, -0.5014630556106567, 0.10265180468559265, -0.12530642747879028, -0.2812742292881012, -0.6354225277900696, 0.4022924602031708, -0.23483526706695557, 0.19205830991268158, -0.28248435258865356, 0.43512555956840515, -0.5787572264671326, -0.06525013595819473, -0.2198743224143982, 0.16990503668785095, 0.04381316527724266, 0.14228394627571106, 0.14181584119796753, -0.415884792804718, 0.014257634989917278, -0.020746326074004173, -0.19176505506038666, 0.04789375141263008, 0.33497488498687744, 0.20580993592739105, -0.07975008338689804, -0.5928167104721069, -0.10837192088365555, -0.29229122400283813, 0.5239400267601013, -0.14546984434127808, 0.1323695331811905, -0.37477216124534607, -0.134100541472435, -0.16181178390979767, 0.001001665717922151, 0.5872659683227539, -0.4227851927280426, 0.16543474793434143, -0.039838261902332306, 0.25028711557388306], [0.21904467046260834, -0.11031284183263779, 0.01730276644229889, 0.39148271083831787, -0.40196484327316284, -0.0015096613205969334, -0.10437151044607162, 0.061215274035930634, -0.5633501410484314, -0.12615454196929932, 0.0414239838719368, 0.090633824467659, 0.11633694916963577, -0.02182575687766075, 0.1371077597141266, 0.0768759474158287, -0.03837192803621292, -0.05851644277572632, -0.07494347542524338, 0.06715171039104462, 0.1975848227739334, 0.12144830077886581, 0.12079214304685593, 0.1062157079577446, 0.2547912299633026, -0.16938847303390503, -0.01929076574742794, 0.18584614992141724, 0.07540836930274963, -0.02248968370258808, -0.015566986985504627, 0.14672087132930756, 0.03758634254336357, -0.21658821403980255, -0.07693322002887726, -0.23701328039169312, -0.043884433805942535, -0.030868427827954292, 0.07450000196695328, 0.2339959740638733, -0.15211255848407745, 0.028160272166132927, -0.19759321212768555, 0.23422735929489136, -0.04970915988087654, 0.047127485275268555, -0.1483205407857895, -0.040953900665044785, 0.10638201981782913, 0.006687707733362913, 0.17079758644104004, -0.07978975772857666, -0.13964974880218506, -0.13840624690055847, 0.08970192819833755, -0.09156642854213715, -0.18653564155101776, 0.16773144900798798, 0.12831968069076538, -0.0019281014101579785, 0.026925699785351753, 0.3089970648288727, -0.45137789845466614, 0.05331002175807953], [-0.037439413368701935, 0.0012042396701872349, 0.04940229654312134, -0.09215591102838516, 0.10612863302230835, 0.27122387290000916, -0.04492291063070297, -0.05080397427082062, -0.06554168462753296, -0.11429411172866821, -0.059501633048057556, -0.3023619055747986, 0.18788647651672363, 0.08074009418487549, 0.18594273924827576, -0.03751213848590851, 0.1319112926721573, 0.03973415121436119, 0.12133516371250153, 0.015436233021318913, 0.2691120505332947, 0.09127892553806305, 0.2932225465774536, -0.05939139053225517, 0.1997656524181366, 0.09076173603534698, 0.07007451355457306, 0.00853587593883276, -0.0410270020365715, -0.13211597502231598, -0.00301614822819829, 0.09957066923379898, 0.18650856614112854, 0.007972129620611668, 0.14739635586738586, -0.17113196849822998, 0.09522189944982529, -0.2041378766298294, 0.16343364119529724, -0.14256158471107483, -0.13314107060432434, 0.044534917920827866, 0.09011685103178024, -0.6996559500694275, 0.0864846482872963, -0.1115952804684639, -0.10711929202079773, 0.09599756449460983, -0.1414046287536621, 0.11068921536207199, 0.08567243814468384, 0.16840410232543945, -0.25941234827041626, -0.02697886899113655, -0.05016831308603287, 0.07507017999887466, -0.05278844013810158, -0.018183918669819832, -0.05753902345895767, -0.15402714908123016, -0.047400739043951035, -0.46960583329200745, 0.14237016439437866, -0.5421838760375977], [0.305025577545166, -0.3075626492500305, -0.07851802557706833, 0.055293548852205276, 0.1101752370595932, -0.1340305060148239, 0.09606270492076874, 0.3256300389766693, -0.11279211193323135, -0.040391385555267334, -0.04467681422829628, -0.14328089356422424, 0.24286019802093506, -0.08818425983190536, 0.009279866702854633, 0.1525832712650299, 0.1768966168165207, 0.18139822781085968, 0.28537023067474365, -0.04009425640106201, 0.05096861720085144, 0.10487845540046692, 0.24036258459091187, -0.19695767760276794, 0.2033454179763794, 0.39125412702560425, -0.34630122780799866, 0.04260855168104172, 0.20796717703342438, 0.014682709239423275, -0.07147758454084396, -0.14244212210178375, -0.24940986931324005, -0.022502612322568893, -0.0309332013130188, -0.1250411868095398, 0.009543473832309246, -0.3631298840045929, -0.037461329251527786, -0.14702913165092468, -0.12523654103279114, -0.20427283644676208, -0.15292388200759888, -0.018005909398198128, 0.1877649873495102, 0.03638659790158272, -0.11930538713932037, 0.0018502501770853996, -0.1787453442811966, 0.036922208964824677, 0.009059774689376354, 0.15224848687648773, -0.37037864327430725, -0.3488278388977051, -0.1487228125333786, -0.42128998041152954, -0.12522830069065094, 0.13518531620502472, 0.26173731684684753, 0.0005636464338749647, 0.012049557641148567, 0.019337814301252365, -0.35655468702316284, 0.03655187040567398], [-0.10581935197114944, -0.13753417134284973, 0.13314354419708252, -0.13548234105110168, 0.014607250690460205, -0.07543070614337921, 0.17479495704174042, 0.07263075560331345, -0.2340257167816162, -0.09506144374608994, -0.3980635106563568, 0.2111024111509323, -0.07387838512659073, 0.08322125673294067, -0.10797259211540222, -0.18362142145633698, 0.16014453768730164, 0.10341265797615051, 0.011071091517806053, -0.02963726595044136, 0.099100261926651, -0.07984742522239685, -0.10617386549711227, 0.009541722014546394, 0.07615267485380173, 0.08351525664329529, -0.059595365077257156, 0.17811289429664612, 0.09593825042247772, 0.11198650300502777, 0.08852692693471909, -0.45905613899230957, -0.08096324652433395, -0.1246977224946022, -0.09637520462274551, -0.10894151031970978, -0.19951917231082916, -0.20739436149597168, -0.1564026027917862, 0.08772201836109161, 0.08202435076236725, -0.05313652381300926, -0.032370246946811676, 0.1948782056570053, 0.16045354306697845, 0.10275399684906006, 0.22282378375530243, -0.13542698323726654, 0.08062431216239929, 0.08267334848642349, -0.015249217860400677, 0.009350044652819633, 0.21222303807735443, 0.19508220255374908, 0.05069148540496826, 0.10700000822544098, -0.20645076036453247, 0.05974020063877106, -0.01744496263563633, 0.20367738604545593, -0.5276867747306824, -0.2703815698623657, -0.026003479957580566, 0.19337742030620575], [-0.008913065306842327, 0.09311798959970474, -0.22861191630363464, 0.18296918272972107, 0.39289212226867676, -0.08835121244192123, -0.09881743788719177, 0.21349042654037476, 0.039475854486227036, -0.20906195044517517, -0.04308690130710602, -0.3225526511669159, -0.033740364015102386, -0.19190113246440887, -0.09191655367612839, 0.4013482630252838, 0.1763431578874588, -0.14146360754966736, -0.14355498552322388, 0.037588540464639664, -0.2753661274909973, 0.12298917770385742, 0.17715254426002502, 0.17392273247241974, 0.07677780091762543, 0.11224456876516342, -0.40457865595817566, 0.050825655460357666, -0.721172571182251, 0.027704332023859024, 0.10545124858617783, -0.018085677176713943, 0.024018367752432823, -0.12412896752357483, 0.04003726691007614, -0.3954203724861145, 0.23952676355838776, 0.3599960207939148, 0.07077295333147049, -0.10605067014694214, 0.16632261872291565, -0.4588440954685211, 0.2628166079521179, -0.14467862248420715, -0.08735491335391998, -0.0009641258511692286, -0.05085410922765732, 0.03580574318766594, -0.05288431793451309, -0.2019052356481552, -0.1250244528055191, -0.46747055649757385, 0.0325167141854763, 0.07889823615550995, 0.09029577672481537, -0.4668668210506439, -0.0586174838244915, -0.388337641954422, -0.00547373341396451, 0.02896673046052456, 0.07403156906366348, -0.5889759659767151, 0.26097145676612854, 0.034686170518398285], [0.2846836745738983, 0.14910459518432617, -0.29021400213241577, -0.33248698711395264, -0.273328572511673, 0.12108250707387924, -0.04778308793902397, 0.10648998618125916, 0.3442972004413605, -0.5679000616073608, 0.05147920548915863, 0.29537782073020935, -0.007223700173199177, -0.16650500893592834, -0.008875607512891293, -0.029825812205672264, 0.07932958751916885, -0.16917620599269867, -0.1096186414361, -0.025546086952090263, -0.3592410087585449, -0.24996806681156158, 0.05851828306913376, -0.30532604455947876, -0.13832172751426697, -0.04501556605100632, -0.015898572281003, -0.07056877762079239, 0.38502663373947144, 0.09168560802936554, -0.38894039392471313, -0.1351345032453537, -0.047432150691747665, 0.08724363148212433, 0.05693439766764641, 0.3180598020553589, -0.6608738899230957, 0.05446578934788704, 0.40270552039146423, -0.0364551842212677, -0.0049176644533872604, -0.1271432489156723, 0.5479466319084167, -0.3542136251926422, 0.029484476894140244, 0.14599628746509552, 0.19430169463157654, 0.24787206947803497, -0.24722275137901306, 0.28449028730392456, -0.25825443863868713, -0.08501161634922028, -0.3530777394771576, -0.31853827834129333, 0.17047439515590668, -0.2769373655319214, 0.20091837644577026, 0.30939990282058716, 0.21291154623031616, -0.5584833025932312, -0.6959884166717529, -0.4797569811344147, -0.48461440205574036, -0.2198299616575241], [-0.009787644259631634, 0.1039971113204956, 0.21302378177642822, 0.07080873101949692, -0.3730708956718445, 0.00923516321927309, 0.00655624084174633, 0.2027520090341568, -0.03383311629295349, -0.05425399914383888, -0.02124197781085968, 0.06829237192869186, 0.11508987098932266, -0.3391357362270355, -0.3714524507522583, -0.1247214823961258, 0.14170050621032715, -0.19996289908885956, 0.08473715931177139, -0.169040247797966, -0.22971701622009277, 0.3651486039161682, -0.10276450961828232, -0.15621551871299744, 0.04381037503480911, 0.2912991940975189, -0.2345111072063446, 0.10612643510103226, 0.06999117881059647, 0.2891917824745178, -0.4333299696445465, -0.3671177625656128, -0.36693254113197327, 0.151685893535614, 0.16133539378643036, -0.07795291393995285, 0.1639803647994995, 0.16331139206886292, -0.1316288858652115, 0.06033533811569214, 0.00976830068975687, 0.26129186153411865, 0.34821617603302, -0.09758294373750687, 0.16056376695632935, -0.0733669325709343, 0.03762546181678772, -0.0504845529794693, -0.30377572774887085, 0.2313370406627655, -0.670693039894104, 0.20926736295223236, -0.5558252930641174, 0.054257266223430634, 0.4672998785972595, -0.30136367678642273, 0.1095365583896637, 0.0015510516241192818, -0.06360127031803131, -0.15715615451335907, -0.18038702011108398, -0.16323043406009674, -0.21034036576747894, 0.20576463639736176], [-0.018087685108184814, -0.046565279364585876, -0.02067379094660282, -0.008795345202088356, -0.17695458233356476, -0.011698180809617043, 0.012460358440876007, -0.11871016025543213, 0.2038041651248932, -0.3985629081726074, 0.18384669721126556, 0.21343745291233063, -0.27423039078712463, 0.5580024719238281, 0.5363193154335022, 0.2635813355445862, -0.2777467966079712, -0.1713852733373642, -0.0869387686252594, 0.2329985350370407, -0.1757565140724182, -0.25303587317466736, -0.023309750482439995, 0.3331353962421417, -0.09476936608552933, -0.2898907959461212, -0.08496757596731186, 0.21659468114376068, -0.2657656967639923, 0.09272658824920654, 0.1000232845544815, -0.05062408000230789, -0.03478496894240379, -0.09995947778224945, 0.18420907855033875, -0.09898046404123306, -0.35154834389686584, -0.03785070404410362, 0.050169091671705246, -0.36858800053596497, -0.05025479570031166, -0.2287561595439911, 0.026873867958784103, 0.40709853172302246, -0.27761587500572205, 0.17006953060626984, 0.1635356843471527, 0.02702946402132511, 0.5410681366920471, 0.15102896094322205, 0.13050366938114166, -0.020809590816497803, -0.06681046634912491, 0.14249339699745178, -0.1453620195388794, 0.22889409959316254, -0.007831241935491562, 0.060973599553108215, 0.24877150356769562, -0.3197093605995178, 0.0070775458589196205, -0.18545588850975037, -0.16982655227184296, 0.1238643005490303], [0.25278615951538086, 0.1507425606250763, 0.03003637306392193, 0.24147190153598785, -0.0921487808227539, 0.19483526051044464, 0.02599729411303997, -0.13986119627952576, 0.19128157198429108, -0.2619035542011261, 0.16022096574306488, 0.15558576583862305, -0.18328681588172913, -0.13872848451137543, 0.0492837093770504, -0.08649887144565582, -0.10497266054153442, 0.18458499014377594, -0.23183327913284302, 0.022993315011262894, -0.18834146857261658, -0.2829744815826416, -0.09493719041347504, -0.23677818477153778, -0.030718620866537094, -0.6409193873405457, 0.3714149296283722, 0.018540235236287117, 0.20959243178367615, -0.08746888488531113, -0.15577876567840576, 0.31961384415626526, 0.2799571752548218, 0.1303677260875702, -0.040254246443510056, -0.09418033808469772, -0.48429936170578003, 0.10094789415597916, -0.2845931351184845, -0.43993717432022095, -0.3941056430339813, 0.3025292754173279, 0.17536427080631256, -0.2391969859600067, -0.21472127735614777, -0.09848162531852722, 0.07168528437614441, -0.09811362624168396, 0.04450555518269539, 0.0020704534836113453, -0.04421350732445717, -0.02035299502313137, 0.18381042778491974, -0.11187590658664703, -0.03904304280877113, -0.10476058721542358, -0.15091925859451294, 0.19862216711044312, 0.17997370660305023, -0.008448115549981594, -0.3912487328052521, -0.5154643058776855, 0.0653398409485817, -0.40068382024765015], [0.20059561729431152, 0.058805741369724274, 0.07271803915500641, -0.11834432184696198, 0.15101608633995056, 0.4269134998321533, -0.1527291238307953, 0.1676098108291626, 0.17272858321666718, 0.12728571891784668, 0.01880495809018612, -0.15219444036483765, 0.005565110128372908, -0.15979152917861938, -0.0751410722732544, -0.13421370089054108, 0.11820229142904282, 0.0712854340672493, 0.2971310019493103, -0.012528421357274055, -0.33203551173210144, -0.254883736371994, -0.03505375236272812, -0.3503282368183136, 0.02565155364573002, -0.05757145583629608, -0.053513120859861374, 0.25140732526779175, 0.013321221806108952, 0.03574584797024727, 0.19149444997310638, -0.34972262382507324, -0.11387331038713455, 0.011938294395804405, 0.08128535747528076, 0.09717844426631927, 0.0424211248755455, 0.10290231555700302, -0.291670024394989, 0.05596016347408295, -0.033885616809129715, 0.27427494525909424, 0.19564256072044373, -0.49095791578292847, 0.15738660097122192, -0.052513495087623596, -0.009901103563606739, 0.12256935983896255, -0.2126801759004593, -0.019175881519913673, -0.4516628086566925, 0.24154779314994812, -0.5206369161605835, 0.12297622859477997, 0.15366433560848236, -0.20484860241413116, 0.29768434166908264, 0.13765566051006317, -0.17802651226520538, -0.985873818397522, 0.2051815390586853, -0.46736711263656616, -0.10564367473125458, -0.15369883179664612], [-0.47240540385246277, -0.07163281738758087, 0.07261683791875839, -0.023318598046898842, -0.17753097414970398, 0.046400025486946106, 0.4111889898777008, -0.18203340470790863, 0.1584397703409195, -0.5830211639404297, -0.07034860551357269, 0.2448137104511261, -0.16568148136138916, -0.14690883457660675, -0.12230188399553299, 0.06230562925338745, -0.006066082511097193, 0.4934006929397583, -0.25116991996765137, -0.030726511031389236, 0.230605810880661, 0.14452284574508667, -0.08711642026901245, -0.0010577486827969551, -0.04587898775935173, -0.08317135274410248, 0.012425384484231472, -0.4867113530635834, 0.041165903210639954, -0.9189795851707458, 0.12847758829593658, -0.05073701962828636, 0.4522229731082916, 0.14302277565002441, -0.050341326743364334, -0.04292604699730873, 0.4495932161808014, 0.18175658583641052, 0.00569268548861146, 0.06489680707454681, 0.09608994424343109, 0.197396919131279, -0.3031247556209564, -0.42294687032699585, -0.09579958766698837, 0.037083566188812256, -0.1192626878619194, -0.47962313890457153, 0.11381783336400986, 0.025442209094762802, 0.20002563297748566, -0.04390103369951248, 0.15715329349040985, 0.24994921684265137, -0.10290703177452087, 0.4307548403739929, 0.03882739320397377, 0.039733223617076874, -0.26752355694770813, 0.03805993124842644, -0.39618566632270813, -0.6459988355636597, 0.15878814458847046, -0.2865905165672302], [-0.5778930187225342, -0.02647433988749981, 0.10865567624568939, 0.04392528161406517, -0.6409264206886292, 0.00671085249632597, 0.11725969612598419, -0.12223754823207855, 0.3429877460002899, 0.01694471389055252, -0.5588555932044983, 0.2641664445400238, 0.016441484913229942, 0.08310239762067795, -0.04678623005747795, -0.0062567126005887985, -0.15663152933120728, 0.04382133483886719, 0.07684583961963654, -0.006181348580867052, 0.17022623121738434, 0.08863124996423721, 0.2256057858467102, 0.029136797413229942, 0.13339301943778992, 0.046991415321826935, 0.04095911979675293, -0.21108314394950867, 0.057245876640081406, -0.5677499175071716, -0.048723313957452774, -0.12089191377162933, 0.11026360094547272, 0.07048351317644119, -0.08916788548231125, -0.02556290477514267, 0.01325578335672617, -0.2255050241947174, 0.052852507680654526, 0.003946635406464338, 0.02017531357705593, 0.045723285526037216, -0.05732814967632294, 0.027221808210015297, -0.07469312101602554, -0.07486972212791443, -0.06305575370788574, 0.06746749579906464, 0.03095594234764576, 0.056652940809726715, 0.04071645438671112, 0.1645410656929016, 0.03533364459872246, 0.056292422115802765, -0.20890352129936218, 0.22017720341682434, 0.03224336355924606, -0.159391850233078, -0.04653589800000191, 0.09131789207458496, 0.14060749113559723, -0.2889268100261688, 0.16439290344715118, -0.15107637643814087], [0.23506996035575867, -0.46471288800239563, 0.13070736825466156, 0.11799385398626328, -0.49541476368904114, 0.005987657234072685, -0.02674994058907032, 0.08931393176317215, -0.104434072971344, -0.45345377922058105, 0.13717815279960632, 0.11434092372655869, 0.17880399525165558, -0.04975219815969467, 0.16980035603046417, -0.0047158487141132355, 0.07486347109079361, 0.04917874187231064, 0.0009444419993087649, -0.014779551886022091, 0.10830328613519669, 0.018814533948898315, 0.014366278424859047, -0.1759244203567505, 0.07568204402923584, 0.14231742918491364, 0.1974099576473236, 0.026304828003048897, 0.0873408317565918, 0.19825348258018494, -0.1979949027299881, 0.23444145917892456, 0.03642585873603821, -0.13509783148765564, 0.15873485803604126, -0.3553544282913208, -0.1508815437555313, -0.09564948081970215, 0.09848102927207947, -0.042177338153123856, -0.10676153004169464, -0.007759485859423876, -0.1994580775499344, 0.17797517776489258, 0.05432649701833725, 0.08951078355312347, -0.09376928210258484, -0.09210134297609329, -0.12809516489505768, 0.10559991747140884, -0.048652488738298416, -0.14487384259700775, 0.05040420591831207, 0.11851681023836136, -0.09818758070468903, 0.09914062917232513, 0.05857429280877113, 0.14615730941295624, -0.06277311593294144, -0.006067445036023855, 0.007736403029412031, 0.14890186488628387, -0.632351815700531, 0.0977320671081543], [-0.15934109687805176, 0.07388441264629364, 0.15879322588443756, 0.1543106585741043, 0.028529880568385124, -0.20252065360546112, 0.16233037412166595, -0.05938462167978287, -0.18322227895259857, 0.05526009574532509, 0.09122174978256226, -0.9318666458129883, -0.15252625942230225, -0.05099090188741684, -0.12900598347187042, -0.03991549834609032, -0.2788691818714142, 0.3027596175670624, -0.10402308404445648, -0.03798023983836174, 0.20016369223594666, 0.16357505321502686, -0.029556043446063995, 0.0208436269313097, 0.06776544451713562, -0.00049697479698807, 0.13782446086406708, -0.12172413617372513, 0.06454920768737793, -0.09417195618152618, -0.031473517417907715, 0.1356184333562851, 0.19629858434200287, 0.10348057746887207, -0.026194782927632332, -0.05345333367586136, 0.1123274490237236, -0.036140598356723785, -0.10290410369634628, 0.23229551315307617, 0.04307335242629051, 0.0741906389594078, -0.44515877962112427, 0.0032527518924325705, -0.03888872265815735, 0.08078524470329285, 0.057797566056251526, -0.6802337765693665, 0.19718816876411438, -0.8160500526428223, -0.02826540917158127, -0.002189401537179947, -0.03782561421394348, -0.19248323142528534, 0.001113130827434361, 